<?xml version="1.0"?>
<opencv_storage>
<myhaar type_id="opencv-haar-classifier">
  <size>
    32 24</size>
  <stages>
    <_>
      <trees>
        <_>
          <_>
            <feature>
              <rects>
                <_>
                  1 8 27 8 -1.</_>
                <_>
                  10 8 9 8 3.</_></rects>
              <tilted>0</tilted></feature>
            <threshold>-0.0194498300552368</threshold>
            <left_val>0.4928855001926422</left_val>
            <right_val>-0.5989810824394226</right_val></_></_>
        <_>
          <_>
            <feature>
              <rects>
                <_>
                  24 3 8 13 -1.</_>
                <_>
                  26 5 4 13 2.</_></rects>
              <tilted>1</tilted></feature>
            <threshold>0.0437054894864559</threshold>
            <left_val>-0.1151468008756638</left_val>
            <right_val>0.6363404989242554</right_val></_></_>
        <_>
          <_>
            <feature>
              <rects>
                <_>
                  2 16 16 8 -1.</_>
                <_>
                  2 20 16 4 2.</_></rects>
              <tilted>0</tilted></feature>
            <threshold>0.0123021304607391</threshold>
            <left_val>-0.3966074883937836</left_val>
            <right_val>0.4753395915031433</right_val></_></_>
        <_>
          <_>
            <feature>
              <rects>
                <_>
                  23 9 6 13 -1.</_>
                <_>
                  23 9 3 13 2.</_></rects>
              <tilted>0</tilted></feature>
            <threshold>0.0484649315476418</threshold>
            <left_val>0.0979609712958336</left_val>
            <right_val>-0.9311354160308838</right_val></_></_>
        <_>
          <_>
            <feature>
              <rects>
                <_>
                  4 11 6 4 -1.</_>
                <_>
                  7 11 3 4 2.</_></rects>
              <tilted>0</tilted></feature>
            <threshold>-3.6197160370647907e-003</threshold>
            <left_val>0.4114083945751190</left_val>
            <right_val>-0.3487677872180939</right_val></_></_>
        <_>
          <_>
            <feature>
              <rects>
                <_>
                  9 9 14 4 -1.</_>
                <_>
                  16 9 7 2 2.</_>
                <_>
                  9 11 7 2 2.</_></rects>
              <tilted>0</tilted></feature>
            <threshold>0.0127861499786377</threshold>
            <left_val>-0.1600629985332489</left_val>
            <right_val>0.7948728799819946</right_val></_></_>
        <_>
          <_>
            <feature>
              <rects>
                <_>
                  9 2 14 6 -1.</_>
                <_>
                  9 2 7 3 2.</_>
                <_>
                  16 5 7 3 2.</_></rects>
              <tilted>0</tilted></feature>
            <threshold>-0.0162242595106363</threshold>
            <left_val>0.7063387036323547</left_val>
            <right_val>-0.1569242030382156</right_val></_></_>
        <_>
          <_>
            <feature>
              <rects>
                <_>
                  12 6 8 4 -1.</_>
                <_>
                  16 6 4 2 2.</_>
                <_>
                  12 8 4 2 2.</_></rects>
              <tilted>0</tilted></feature>
            <threshold>4.3384861201047897e-003</threshold>
            <left_val>-0.1836680024862289</left_val>
            <right_val>0.5924881100654602</right_val></_></_>
        <_>
          <_>
            <feature>
              <rects>
                <_>
                  11 3 10 8 -1.</_>
                <_>
                  11 3 5 4 2.</_>
                <_>
                  16 7 5 4 2.</_></rects>
              <tilted>0</tilted></feature>
            <threshold>8.9555289596319199e-003</threshold>
            <left_val>-0.1996951997280121</left_val>
            <right_val>0.5005723237991333</right_val></_></_>
        <_>
          <_>
            <feature>
              <rects>
                <_>
                  10 0 18 20 -1.</_>
                <_>
                  10 5 18 10 2.</_></rects>
              <tilted>0</tilted></feature>
            <threshold>0.0746862888336182</threshold>
            <left_val>-0.1731507033109665</left_val>
            <right_val>0.4348605871200562</right_val></_></_></trees>
      <stage_threshold>-1.3003259897232056</stage_threshold>
      <parent>-1</parent>
      <next>-1</next></_>
    <_>
      <trees>
        <_>
          <_>
            <feature>
              <rects>
                <_>
                  6 13 2 1 -1.</_>
                <_>
                  7 13 1 1 2.</_></rects>
              <tilted>0</tilted></feature>
            <threshold>-1.1611179616011214e-005</threshold>
            <left_val>0.3641924858093262</left_val>
            <right_val>-0.4329886138439179</right_val></_></_>
        <_>
          <_>
            <feature>
              <rects>
                <_>
                  1 7 30 16 -1.</_>
                <_>
                  16 7 15 8 2.</_>
                <_>
                  1 15 15 8 2.</_></rects>
              <tilted>0</tilted></feature>
            <threshold>0.1135912984609604</threshold>
            <left_val>-0.2238599061965942</left_val>
            <right_val>0.6226143836975098</right_val></_></_>
        <_>
          <_>
            <feature>
              <rects>
                <_>
                  8 15 2 1 -1.</_>
                <_>
                  9 15 1 1 2.</_></rects>
              <tilted>0</tilted></feature>
            <threshold>-2.5381759769516066e-005</threshold>
            <left_val>0.3608072996139526</left_val>
            <right_val>-0.3452790975570679</right_val></_></_>
        <_>
          <_>
            <feature>
              <rects>
                <_>
                  10 9 12 13 -1.</_>
                <_>
                  14 9 4 13 3.</_></rects>
              <tilted>0</tilted></feature>
            <threshold>-0.0140212699770927</threshold>
            <left_val>0.3453032970428467</left_val>
            <right_val>-0.3557763099670410</right_val></_></_>
        <_>
          <_>
            <feature>
              <rects>
                <_>
                  8 14 2 2 -1.</_>
                <_>
                  8 14 1 1 2.</_>
                <_>
                  9 15 1 1 2.</_></rects>
              <tilted>0</tilted></feature>
            <threshold>1.1103339602414053e-005</threshold>
            <left_val>-0.2606757879257202</left_val>
            <right_val>0.3954392075538635</right_val></_></_>
        <_>
          <_>
            <feature>
              <rects>
                <_>
                  13 8 12 8 -1.</_>
                <_>
                  13 10 12 4 2.</_></rects>
              <tilted>0</tilted></feature>
            <threshold>0.0341651402413845</threshold>
            <left_val>-0.0465353690087795</left_val>
            <right_val>0.6217702031135559</right_val></_></_>
        <_>
          <_>
            <feature>
              <rects>
                <_>
                  1 0 18 10 -1.</_>
                <_>
                  1 0 9 5 2.</_>
                <_>
                  10 5 9 5 2.</_></rects>
              <tilted>0</tilted></feature>
            <threshold>-0.0275636892765760</threshold>
            <left_val>0.4483712911605835</left_val>
            <right_val>-0.2071807980537415</right_val></_></_>
        <_>
          <_>
            <feature>
              <rects>
                <_>
                  28 18 2 1 -1.</_>
                <_>
                  28 18 1 1 2.</_></rects>
              <tilted>0</tilted></feature>
            <threshold>1.1335239832988009e-005</threshold>
            <left_val>-0.2197968065738678</left_val>
            <right_val>0.2675332129001617</right_val></_></_>
        <_>
          <_>
            <feature>
              <rects>
                <_>
                  5 17 9 6 -1.</_>
                <_>
                  5 20 9 3 2.</_></rects>
              <tilted>0</tilted></feature>
            <threshold>0.0118161896243691</threshold>
            <left_val>-0.2048515975475311</left_val>
            <right_val>0.4514934122562408</right_val></_></_>
        <_>
          <_>
            <feature>
              <rects>
                <_>
                  25 13 2 1 -1.</_>
                <_>
                  25 13 1 1 2.</_></rects>
              <tilted>0</tilted></feature>
            <threshold>1.0399510210845619e-004</threshold>
            <left_val>-0.1699236035346985</left_val>
            <right_val>0.4084286987781525</right_val></_></_>
        <_>
          <_>
            <feature>
              <rects>
                <_>
                  13 20 1 2 -1.</_>
                <_>
                  13 21 1 1 2.</_></rects>
              <tilted>0</tilted></feature>
            <threshold>-2.2198319129529409e-005</threshold>
            <left_val>0.4224815964698792</left_val>
            <right_val>-0.2126967012882233</right_val></_></_>
        <_>
          <_>
            <feature>
              <rects>
                <_>
                  4 7 24 6 -1.</_>
                <_>
                  4 10 24 3 2.</_></rects>
              <tilted>0</tilted></feature>
            <threshold>-0.0124805802479386</threshold>
            <left_val>0.3099043071269989</left_val>
            <right_val>-0.3061963915824890</right_val></_></_>
        <_>
          <_>
            <feature>
              <rects>
                <_>
                  13 19 2 1 -1.</_>
                <_>
                  14 19 1 1 2.</_></rects>
              <tilted>0</tilted></feature>
            <threshold>-1.1046689905924723e-005</threshold>
            <left_val>0.3294776082038879</left_val>
            <right_val>-0.2934566140174866</right_val></_></_>
        <_>
          <_>
            <feature>
              <rects>
                <_>
                  15 9 6 4 -1.</_>
                <_>
                  15 11 6 2 2.</_></rects>
              <tilted>0</tilted></feature>
            <threshold>9.9791679531335831e-003</threshold>
            <left_val>-0.0666391775012016</left_val>
            <right_val>0.6322587132453919</right_val></_></_>
        <_>
          <_>
            <feature>
              <rects>
                <_>
                  0 0 4 3 -1.</_>
                <_>
                  0 1 4 1 3.</_></rects>
              <tilted>0</tilted></feature>
            <threshold>1.0438930476084352e-003</threshold>
            <left_val>0.1425866037607193</left_val>
            <right_val>-0.7054905891418457</right_val></_></_></trees>
      <stage_threshold>-1.2108969688415527</stage_threshold>
      <parent>0</parent>
      <next>-1</next></_>
    <_>
      <trees>
        <_>
          <_>
            <feature>
              <rects>
                <_>
                  15 6 2 2 -1.</_>
                <_>
                  15 7 2 1 2.</_></rects>
              <tilted>0</tilted></feature>
            <threshold>-1.9612749747466296e-004</threshold>
            <left_val>0.4258596897125244</left_val>
            <right_val>-0.3162787854671478</right_val></_></_>
        <_>
          <_>
            <feature>
              <rects>
                <_>
                  23 14 2 1 -1.</_>
                <_>
                  23 14 1 1 2.</_></rects>
              <tilted>0</tilted></feature>
            <threshold>1.1375769645383116e-005</threshold>
            <left_val>-0.1551395952701569</left_val>
            <right_val>0.2623069882392883</right_val></_></_>
        <_>
          <_>
            <feature>
              <rects>
                <_>
                  5 9 4 8 -1.</_>
                <_>
                  7 9 2 8 2.</_></rects>
              <tilted>0</tilted></feature>
            <threshold>-5.1392680034041405e-003</threshold>
            <left_val>0.3479632139205933</left_val>
            <right_val>-0.2849209010601044</right_val></_></_>
        <_>
          <_>
            <feature>
              <rects>
                <_>
                  8 0 17 16 -1.</_>
                <_>
                  8 4 17 8 2.</_></rects>
              <tilted>0</tilted></feature>
            <threshold>0.0490536913275719</threshold>
            <left_val>-0.2616668939590454</left_val>
            <right_val>0.3997837007045746</right_val></_></_>
        <_>
          <_>
            <feature>
              <rects>
                <_>
                  10 9 8 4 -1.</_>
                <_>
                  10 11 8 2 2.</_></rects>
              <tilted>0</tilted></feature>
            <threshold>7.9660126939415932e-003</threshold>
            <left_val>-0.1655029058456421</left_val>
            <right_val>0.5446248054504395</right_val></_></_>
        <_>
          <_>
            <feature>
              <rects>
                <_>
                  22 15 2 1 -1.</_>
                <_>
                  22 15 1 1 2.</_></rects>
              <tilted>0</tilted></feature>
            <threshold>-1.0811099855345674e-005</threshold>
            <left_val>0.2373387962579727</left_val>
            <right_val>-0.1467738002538681</right_val></_></_>
        <_>
          <_>
            <feature>
              <rects>
                <_>
                  0 3 6 19 -1.</_>
                <_>
                  3 3 3 19 2.</_></rects>
              <tilted>0</tilted></feature>
            <threshold>-6.5370900556445122e-003</threshold>
            <left_val>0.3095555007457733</left_val>
            <right_val>-0.3133290112018585</right_val></_></_>
        <_>
          <_>
            <feature>
              <rects>
                <_>
                  2 5 30 5 -1.</_>
                <_>
                  2 5 15 5 2.</_></rects>
              <tilted>0</tilted></feature>
            <threshold>-0.1055110022425652</threshold>
            <left_val>0.5884283185005188</left_val>
            <right_val>-0.1374868005514145</right_val></_></_>
        <_>
          <_>
            <feature>
              <rects>
                <_>
                  14 18 2 1 -1.</_>
                <_>
                  15 18 1 1 2.</_></rects>
              <tilted>0</tilted></feature>
            <threshold>-2.2626589270657860e-005</threshold>
            <left_val>0.3499482870101929</left_val>
            <right_val>-0.2933014929294586</right_val></_></_>
        <_>
          <_>
            <feature>
              <rects>
                <_>
                  22 16 2 1 -1.</_>
                <_>
                  22 16 1 1 2.</_></rects>
              <tilted>0</tilted></feature>
            <threshold>2.1859839762328193e-005</threshold>
            <left_val>-0.1722536981105804</left_val>
            <right_val>0.2716929912567139</right_val></_></_>
        <_>
          <_>
            <feature>
              <rects>
                <_>
                  5 11 10 10 -1.</_>
                <_>
                  10 11 5 10 2.</_></rects>
              <tilted>0</tilted></feature>
            <threshold>-0.0173695906996727</threshold>
            <left_val>0.2848088145256043</left_val>
            <right_val>-0.3170653879642487</right_val></_></_>
        <_>
          <_>
            <feature>
              <rects>
                <_>
                  17 0 8 14 -1.</_>
                <_>
                  17 0 4 14 2.</_></rects>
              <tilted>1</tilted></feature>
            <threshold>0.2602848112583160</threshold>
            <left_val>5.6186867877840996e-003</left_val>
            <right_val>-1.0000009536743164</right_val></_></_>
        <_>
          <_>
            <feature>
              <rects>
                <_>
                  15 0 14 8 -1.</_>
                <_>
                  15 0 14 4 2.</_></rects>
              <tilted>1</tilted></feature>
            <threshold>0.0204514209181070</threshold>
            <left_val>-0.3588924109935761</left_val>
            <right_val>0.2890596985816956</right_val></_></_>
        <_>
          <_>
            <feature>
              <rects>
                <_>
                  2 8 28 4 -1.</_>
                <_>
                  2 8 14 4 2.</_></rects>
              <tilted>0</tilted></feature>
            <threshold>0.1108025982975960</threshold>
            <left_val>-0.1254986971616745</left_val>
            <right_val>0.6759756207466126</right_val></_></_>
        <_>
          <_>
            <feature>
              <rects>
                <_>
                  6 6 6 4 -1.</_>
                <_>
                  5 7 6 2 2.</_></rects>
              <tilted>1</tilted></feature>
            <threshold>-8.0125303938984871e-003</threshold>
            <left_val>0.6219760179519653</left_val>
            <right_val>-0.1221437975764275</right_val></_></_>
        <_>
          <_>
            <feature>
              <rects>
                <_>
                  28 0 2 2 -1.</_>
                <_>
                  28 1 2 1 2.</_></rects>
              <tilted>0</tilted></feature>
            <threshold>-2.7757680509239435e-003</threshold>
            <left_val>-0.8677070140838623</left_val>
            <right_val>0.0405134111642838</right_val></_></_></trees>
      <stage_threshold>-0.9994040131568909</stage_threshold>
      <parent>1</parent>
      <next>-1</next></_>
    <_>
      <trees>
        <_>
          <_>
            <feature>
              <rects>
                <_>
                  15 7 1 2 -1.</_>
                <_>
                  15 8 1 1 2.</_></rects>
              <tilted>0</tilted></feature>
            <threshold>-1.0167570144403726e-004</threshold>
            <left_val>0.3807859122753143</left_val>
            <right_val>-0.2976247072219849</right_val></_></_>
        <_>
          <_>
            <feature>
              <rects>
                <_>
                  14 5 5 4 -1.</_>
                <_>
                  14 6 5 2 2.</_></rects>
              <tilted>0</tilted></feature>
            <threshold>-1.0945620015263557e-003</threshold>
            <left_val>0.4219571948051453</left_val>
            <right_val>-0.1855310052633286</right_val></_></_>
        <_>
          <_>
            <feature>
              <rects>
                <_>
                  13 8 3 6 -1.</_>
                <_>
                  13 10 3 2 3.</_></rects>
              <tilted>0</tilted></feature>
            <threshold>-4.7442559152841568e-003</threshold>
            <left_val>0.4553053081035614</left_val>
            <right_val>-0.2033880054950714</right_val></_></_>
        <_>
          <_>
            <feature>
              <rects>
                <_>
                  22 14 2 1 -1.</_>
                <_>
                  22 14 1 1 2.</_></rects>
              <tilted>0</tilted></feature>
            <threshold>1.9805040210485458e-005</threshold>
            <left_val>-0.1139900982379913</left_val>
            <right_val>0.2610917091369629</right_val></_></_>
        <_>
          <_>
            <feature>
              <rects>
                <_>
                  2 10 22 4 -1.</_>
                <_>
                  2 10 11 2 2.</_>
                <_>
                  13 12 11 2 2.</_></rects>
              <tilted>0</tilted></feature>
            <threshold>-8.5316952317953110e-003</threshold>
            <left_val>0.3894067108631134</left_val>
            <right_val>-0.2610251903533936</right_val></_></_>
        <_>
          <_>
            <feature>
              <rects>
                <_>
                  15 1 2 8 -1.</_>
                <_>
                  16 1 1 4 2.</_>
                <_>
                  15 5 1 4 2.</_></rects>
              <tilted>0</tilted></feature>
            <threshold>-7.1245367871597409e-004</threshold>
            <left_val>0.4682121872901917</left_val>
            <right_val>-0.1455933004617691</right_val></_></_>
        <_>
          <_>
            <feature>
              <rects>
                <_>
                  13 4 6 4 -1.</_>
                <_>
                  13 4 3 2 2.</_>
                <_>
                  16 6 3 2 2.</_></rects>
              <tilted>0</tilted></feature>
            <threshold>-2.6318610180169344e-003</threshold>
            <left_val>0.5228865742683411</left_val>
            <right_val>-0.1922214031219482</right_val></_></_>
        <_>
          <_>
            <feature>
              <rects>
                <_>
                  30 0 2 12 -1.</_>
                <_>
                  30 6 2 6 2.</_></rects>
              <tilted>0</tilted></feature>
            <threshold>-0.0162048302590847</threshold>
            <left_val>0.3875649869441986</left_val>
            <right_val>-0.0381386987864971</right_val></_></_>
        <_>
          <_>
            <feature>
              <rects>
                <_>
                  0 0 2 12 -1.</_>
                <_>
                  0 6 2 6 2.</_></rects>
              <tilted>0</tilted></feature>
            <threshold>-0.0161151401698589</threshold>
            <left_val>-0.9197850227355957</left_val>
            <right_val>0.0989430770277977</right_val></_></_>
        <_>
          <_>
            <feature>
              <rects>
                <_>
                  19 7 8 9 -1.</_>
                <_>
                  19 10 8 3 3.</_></rects>
              <tilted>0</tilted></feature>
            <threshold>-0.0105647295713425</threshold>
            <left_val>0.2033929973840714</left_val>
            <right_val>-0.1898230016231537</right_val></_></_>
        <_>
          <_>
            <feature>
              <rects>
                <_>
                  5 7 8 9 -1.</_>
                <_>
                  5 10 8 3 3.</_></rects>
              <tilted>0</tilted></feature>
            <threshold>0.0154271395877004</threshold>
            <left_val>-0.1586783975362778</left_val>
            <right_val>0.5633190870285034</right_val></_></_>
        <_>
          <_>
            <feature>
              <rects>
                <_>
                  23 14 2 1 -1.</_>
                <_>
                  23 14 1 1 2.</_></rects>
              <tilted>0</tilted></feature>
            <threshold>1.3291150098666549e-003</threshold>
            <left_val>0.0204844996333122</left_val>
            <right_val>-0.8920354843139648</right_val></_></_>
        <_>
          <_>
            <feature>
              <rects>
                <_>
                  6 11 4 6 -1.</_>
                <_>
                  6 14 4 3 2.</_></rects>
              <tilted>0</tilted></feature>
            <threshold>0.0121960900723934</threshold>
            <left_val>-0.1386657059192658</left_val>
            <right_val>0.6307774782180786</right_val></_></_>
        <_>
          <_>
            <feature>
              <rects>
                <_>
                  3 16 26 4 -1.</_>
                <_>
                  16 16 13 2 2.</_>
                <_>
                  3 18 13 2 2.</_></rects>
              <tilted>0</tilted></feature>
            <threshold>4.4952160678803921e-003</threshold>
            <left_val>-0.2419445067644119</left_val>
            <right_val>0.3539654016494751</right_val></_></_>
        <_>
          <_>
            <feature>
              <rects>
                <_>
                  14 17 3 4 -1.</_>
                <_>
                  15 17 1 4 3.</_></rects>
              <tilted>0</tilted></feature>
            <threshold>1.0045249946415424e-003</threshold>
            <left_val>0.1305029988288879</left_val>
            <right_val>-0.8091651797294617</right_val></_></_>
        <_>
          <_>
            <feature>
              <rects>
                <_>
                  19 8 12 15 -1.</_>
                <_>
                  19 8 6 15 2.</_></rects>
              <tilted>0</tilted></feature>
            <threshold>0.0248986091464758</threshold>
            <left_val>-0.1622637063264847</left_val>
            <right_val>0.1974170953035355</right_val></_></_>
        <_>
          <_>
            <feature>
              <rects>
                <_>
                  4 7 24 9 -1.</_>
                <_>
                  10 7 12 9 2.</_></rects>
              <tilted>0</tilted></feature>
            <threshold>-0.0338706113398075</threshold>
            <left_val>0.3064483106136322</left_val>
            <right_val>-0.3266875147819519</right_val></_></_>
        <_>
          <_>
            <feature>
              <rects>
                <_>
                  29 11 1 2 -1.</_>
                <_>
                  29 12 1 1 2.</_></rects>
              <tilted>0</tilted></feature>
            <threshold>-4.6178189222700894e-005</threshold>
            <left_val>0.3107661008834839</left_val>
            <right_val>-0.2602944970130920</right_val></_></_></trees>
      <stage_threshold>-1.0470759868621826</stage_threshold>
      <parent>2</parent>
      <next>-1</next></_>
    <_>
      <trees>
        <_>
          <_>
            <feature>
              <rects>
                <_>
                  4 8 22 6 -1.</_>
                <_>
                  15 8 11 6 2.</_></rects>
              <tilted>0</tilted></feature>
            <threshold>0.0452752299606800</threshold>
            <left_val>-0.1659127026796341</left_val>
            <right_val>0.4902567863464356</right_val></_></_>
        <_>
          <_>
            <feature>
              <rects>
                <_>
                  15 19 2 1 -1.</_>
                <_>
                  15 19 1 1 2.</_></rects>
              <tilted>0</tilted></feature>
            <threshold>1.0895770174101926e-005</threshold>
            <left_val>-0.2675381898880005</left_val>
            <right_val>0.3444637060165405</right_val></_></_>
        <_>
          <_>
            <feature>
              <rects>
                <_>
                  0 9 12 13 -1.</_>
                <_>
                  6 9 6 13 2.</_></rects>
              <tilted>0</tilted></feature>
            <threshold>-0.0361885912716389</threshold>
            <left_val>0.2059369981288910</left_val>
            <right_val>-0.4517037868499756</right_val></_></_>
        <_>
          <_>
            <feature>
              <rects>
                <_>
                  20 6 12 8 -1.</_>
                <_>
                  20 6 6 8 2.</_></rects>
              <tilted>0</tilted></feature>
            <threshold>0.0235725399106741</threshold>
            <left_val>-0.1557323038578033</left_val>
            <right_val>0.3429842889308929</right_val></_></_>
        <_>
          <_>
            <feature>
              <rects>
                <_>
                  13 4 6 4 -1.</_>
                <_>
                  13 4 3 2 2.</_>
                <_>
                  16 6 3 2 2.</_></rects>
              <tilted>0</tilted></feature>
            <threshold>-4.0654740296304226e-003</threshold>
            <left_val>0.6066374778747559</left_val>
            <right_val>-0.1294550001621246</right_val></_></_>
        <_>
          <_>
            <feature>
              <rects>
                <_>
                  18 18 2 1 -1.</_>
                <_>
                  18 18 1 1 2.</_></rects>
              <tilted>0</tilted></feature>
            <threshold>1.0811099855345674e-005</threshold>
            <left_val>-0.1323183029890060</left_val>
            <right_val>0.2409646958112717</right_val></_></_>
        <_>
          <_>
            <feature>
              <rects>
                <_>
                  0 6 12 8 -1.</_>
                <_>
                  6 6 6 8 2.</_></rects>
              <tilted>0</tilted></feature>
            <threshold>0.0253361091017723</threshold>
            <left_val>-0.0921124592423439</left_val>
            <right_val>0.8074254989624023</right_val></_></_>
        <_>
          <_>
            <feature>
              <rects>
                <_>
                  18 18 2 1 -1.</_>
                <_>
                  18 18 1 1 2.</_></rects>
              <tilted>0</tilted></feature>
            <threshold>-2.1628489776048809e-005</threshold>
            <left_val>0.2343070060014725</left_val>
            <right_val>-0.1576683968305588</right_val></_></_>
        <_>
          <_>
            <feature>
              <rects>
                <_>
                  6 8 7 6 -1.</_>
                <_>
                  4 10 7 2 3.</_></rects>
              <tilted>1</tilted></feature>
            <threshold>0.0286310594528914</threshold>
            <left_val>-0.1419607996940613</left_val>
            <right_val>0.7177001833915710</right_val></_></_>
        <_>
          <_>
            <feature>
              <rects>
                <_>
                  18 18 2 1 -1.</_>
                <_>
                  18 18 1 1 2.</_></rects>
              <tilted>0</tilted></feature>
            <threshold>1.0811099855345674e-005</threshold>
            <left_val>-0.1152419969439507</left_val>
            <right_val>0.2955532073974609</right_val></_></_>
        <_>
          <_>
            <feature>
              <rects>
                <_>
                  12 18 2 1 -1.</_>
                <_>
                  13 18 1 1 2.</_></rects>
              <tilted>0</tilted></feature>
            <threshold>-1.1103339602414053e-005</threshold>
            <left_val>0.3030104935169220</left_val>
            <right_val>-0.3022946119308472</right_val></_></_>
        <_>
          <_>
            <feature>
              <rects>
                <_>
                  18 2 10 8 -1.</_>
                <_>
                  23 2 5 4 2.</_>
                <_>
                  18 6 5 4 2.</_></rects>
              <tilted>0</tilted></feature>
            <threshold>-0.0226172301918268</threshold>
            <left_val>0.5960651040077210</left_val>
            <right_val>-0.0736143663525581</right_val></_></_>
        <_>
          <_>
            <feature>
              <rects>
                <_>
                  16 0 8 4 -1.</_>
                <_>
                  15 1 8 2 2.</_></rects>
              <tilted>1</tilted></feature>
            <threshold>0.0162458699196577</threshold>
            <left_val>-0.0953740328550339</left_val>
            <right_val>0.8982139825820923</right_val></_></_>
        <_>
          <_>
            <feature>
              <rects>
                <_>
                  11 18 16 4 -1.</_>
                <_>
                  11 20 16 2 2.</_></rects>
              <tilted>0</tilted></feature>
            <threshold>0.0133094303309917</threshold>
            <left_val>-0.1103651002049446</left_val>
            <right_val>0.3746367096900940</right_val></_></_>
        <_>
          <_>
            <feature>
              <rects>
                <_>
                  16 17 6 1 -1.</_>
                <_>
                  16 17 3 1 2.</_></rects>
              <tilted>1</tilted></feature>
            <threshold>2.6522299740463495e-003</threshold>
            <left_val>-0.2135246992111206</left_val>
            <right_val>0.4095310866832733</right_val></_></_>
        <_>
          <_>
            <feature>
              <rects>
                <_>
                  12 1 15 16 -1.</_>
                <_>
                  12 5 15 8 2.</_></rects>
              <tilted>0</tilted></feature>
            <threshold>0.0536875315010548</threshold>
            <left_val>-0.1028326004743576</left_val>
            <right_val>0.2776547074317932</right_val></_></_>
        <_>
          <_>
            <feature>
              <rects>
                <_>
                  3 0 14 10 -1.</_>
                <_>
                  3 0 7 5 2.</_>
                <_>
                  10 5 7 5 2.</_></rects>
              <tilted>0</tilted></feature>
            <threshold>-0.0291204396635294</threshold>
            <left_val>0.4486258029937744</left_val>
            <right_val>-0.1868402063846588</right_val></_></_>
        <_>
          <_>
            <feature>
              <rects>
                <_>
                  20 0 12 20 -1.</_>
                <_>
                  20 0 6 20 2.</_></rects>
              <tilted>0</tilted></feature>
            <threshold>0.1251647025346756</threshold>
            <left_val>0.0575450100004673</left_val>
            <right_val>-0.4638156890869141</right_val></_></_>
        <_>
          <_>
            <feature>
              <rects>
                <_>
                  11 21 2 1 -1.</_>
                <_>
                  12 21 1 1 2.</_></rects>
              <tilted>0</tilted></feature>
            <threshold>-1.1643700418062508e-005</threshold>
            <left_val>0.2606051862239838</left_val>
            <right_val>-0.2795470952987671</right_val></_></_>
        <_>
          <_>
            <feature>
              <rects>
                <_>
                  13 2 14 16 -1.</_>
                <_>
                  13 6 14 8 2.</_></rects>
              <tilted>0</tilted></feature>
            <threshold>0.1650584936141968</threshold>
            <left_val>0.0370312705636024</left_val>
            <right_val>-0.7025083899497986</right_val></_></_>
        <_>
          <_>
            <feature>
              <rects>
                <_>
                  5 2 14 16 -1.</_>
                <_>
                  5 6 14 8 2.</_></rects>
              <tilted>0</tilted></feature>
            <threshold>0.0303140208125114</threshold>
            <left_val>-0.2179944962263107</left_val>
            <right_val>0.4131284058094025</right_val></_></_>
        <_>
          <_>
            <feature>
              <rects>
                <_>
                  17 7 3 6 -1.</_>
                <_>
                  17 9 3 2 3.</_></rects>
              <tilted>0</tilted></feature>
            <threshold>-3.1120749190449715e-003</threshold>
            <left_val>0.3938660919666290</left_val>
            <right_val>-0.1402250975370407</right_val></_></_></trees>
      <stage_threshold>-1.0777310132980347</stage_threshold>
      <parent>3</parent>
      <next>-1</next></_>
    <_>
      <trees>
        <_>
          <_>
            <feature>
              <rects>
                <_>
                  12 7 3 6 -1.</_>
                <_>
                  12 9 3 2 3.</_></rects>
              <tilted>0</tilted></feature>
            <threshold>-7.5417701154947281e-003</threshold>
            <left_val>0.5766777992248535</left_val>
            <right_val>-0.1572794020175934</right_val></_></_>
        <_>
          <_>
            <feature>
              <rects>
                <_>
                  23 14 2 1 -1.</_>
                <_>
                  23 14 1 1 2.</_></rects>
              <tilted>0</tilted></feature>
            <threshold>-9.6164632122963667e-004</threshold>
            <left_val>-0.6183263063430786</left_val>
            <right_val>0.0479076616466045</right_val></_></_>
        <_>
          <_>
            <feature>
              <rects>
                <_>
                  7 14 2 1 -1.</_>
                <_>
                  8 14 1 1 2.</_></rects>
              <tilted>0</tilted></feature>
            <threshold>-8.7034983152989298e-005</threshold>
            <left_val>0.3281708955764771</left_val>
            <right_val>-0.2776444852352142</right_val></_></_>
        <_>
          <_>
            <feature>
              <rects>
                <_>
                  26 9 4 6 -1.</_>
                <_>
                  27 10 2 6 2.</_></rects>
              <tilted>1</tilted></feature>
            <threshold>-7.1419179439544678e-003</threshold>
            <left_val>0.4515227973461151</left_val>
            <right_val>-0.1429747045040131</right_val></_></_>
        <_>
          <_>
            <feature>
              <rects>
                <_>
                  13 5 4 1 -1.</_>
                <_>
                  14 6 2 1 2.</_></rects>
              <tilted>1</tilted></feature>
            <threshold>-5.3712172666564584e-004</threshold>
            <left_val>0.4311214983463287</left_val>
            <right_val>-0.1410496979951859</right_val></_></_>
        <_>
          <_>
            <feature>
              <rects>
                <_>
                  28 21 2 1 -1.</_>
                <_>
                  28 21 1 1 2.</_></rects>
              <tilted>0</tilted></feature>
            <threshold>2.0795370801351964e-005</threshold>
            <left_val>-0.2251217067241669</left_val>
            <right_val>0.2414382994174957</right_val></_></_>
        <_>
          <_>
            <feature>
              <rects>
                <_>
                  2 21 2 1 -1.</_>
                <_>
                  3 21 1 1 2.</_></rects>
              <tilted>0</tilted></feature>
            <threshold>-1.0811099855345674e-005</threshold>
            <left_val>0.2744241058826447</left_val>
            <right_val>-0.2925685942173004</right_val></_></_>
        <_>
          <_>
            <feature>
              <rects>
                <_>
                  22 21 5 3 -1.</_>
                <_>
                  22 22 5 1 3.</_></rects>
              <tilted>0</tilted></feature>
            <threshold>-3.5830910783261061e-003</threshold>
            <left_val>-0.6295201182365418</left_val>
            <right_val>0.0547167286276817</right_val></_></_>
        <_>
          <_>
            <feature>
              <rects>
                <_>
                  14 7 4 10 -1.</_>
                <_>
                  15 7 2 10 2.</_></rects>
              <tilted>0</tilted></feature>
            <threshold>-1.8503799801692367e-003</threshold>
            <left_val>0.3689602017402649</left_val>
            <right_val>-0.2292592972517014</right_val></_></_>
        <_>
          <_>
            <feature>
              <rects>
                <_>
                  18 0 8 15 -1.</_>
                <_>
                  18 0 4 15 2.</_></rects>
              <tilted>1</tilted></feature>
            <threshold>0.2130136042833328</threshold>
            <left_val>0.0447846092283726</left_val>
            <right_val>-0.7903671860694885</right_val></_></_>
        <_>
          <_>
            <feature>
              <rects>
                <_>
                  14 0 15 8 -1.</_>
                <_>
                  14 0 15 4 2.</_></rects>
              <tilted>1</tilted></feature>
            <threshold>0.0227030608803034</threshold>
            <left_val>-0.3178488910198212</left_val>
            <right_val>0.2761779129505158</right_val></_></_>
        <_>
          <_>
            <feature>
              <rects>
                <_>
                  2 0 30 13 -1.</_>
                <_>
                  2 0 15 13 2.</_></rects>
              <tilted>0</tilted></feature>
            <threshold>0.3672789037227631</threshold>
            <left_val>-0.1574838012456894</left_val>
            <right_val>0.6929916739463806</right_val></_></_>
        <_>
          <_>
            <feature>
              <rects>
                <_>
                  14 18 3 2 -1.</_>
                <_>
                  15 18 1 2 3.</_></rects>
              <tilted>0</tilted></feature>
            <threshold>-5.0315528642386198e-004</threshold>
            <left_val>-0.5099964141845703</left_val>
            <right_val>0.1856911033391953</right_val></_></_>
        <_>
          <_>
            <feature>
              <rects>
                <_>
                  24 6 6 9 -1.</_>
                <_>
                  26 8 2 9 3.</_></rects>
              <tilted>1</tilted></feature>
            <threshold>0.0210740994662046</threshold>
            <left_val>-0.1254293024539948</left_val>
            <right_val>0.3634895980358124</right_val></_></_>
        <_>
          <_>
            <feature>
              <rects>
                <_>
                  8 6 9 6 -1.</_>
                <_>
                  6 8 9 2 3.</_></rects>
              <tilted>1</tilted></feature>
            <threshold>-0.0324097611010075</threshold>
            <left_val>0.6563675999641419</left_val>
            <right_val>-0.1270817965269089</right_val></_></_>
        <_>
          <_>
            <feature>
              <rects>
                <_>
                  13 0 16 6 -1.</_>
                <_>
                  13 2 16 2 3.</_></rects>
              <tilted>0</tilted></feature>
            <threshold>-0.0740900412201881</threshold>
            <left_val>-0.7879835963249207</left_val>
            <right_val>0.0359943285584450</right_val></_></_>
        <_>
          <_>
            <feature>
              <rects>
                <_>
                  3 0 16 6 -1.</_>
                <_>
                  3 2 16 2 3.</_></rects>
              <tilted>0</tilted></feature>
            <threshold>-3.3556360285729170e-003</threshold>
            <left_val>0.3821829855442047</left_val>
            <right_val>-0.2559699118137360</right_val></_></_>
        <_>
          <_>
            <feature>
              <rects>
                <_>
                  21 21 9 3 -1.</_>
                <_>
                  21 22 9 1 3.</_></rects>
              <tilted>0</tilted></feature>
            <threshold>0.0133197195827961</threshold>
            <left_val>0.0255006197839975</left_val>
            <right_val>-1.0000079870223999</right_val></_></_>
        <_>
          <_>
            <feature>
              <rects>
                <_>
                  2 21 11 3 -1.</_>
                <_>
                  2 22 11 1 3.</_></rects>
              <tilted>0</tilted></feature>
            <threshold>-1.4826660044491291e-003</threshold>
            <left_val>-0.5213615894317627</left_val>
            <right_val>0.1429149955511093</right_val></_></_>
        <_>
          <_>
            <feature>
              <rects>
                <_>
                  21 14 2 1 -1.</_>
                <_>
                  21 14 1 1 2.</_></rects>
              <tilted>0</tilted></feature>
            <threshold>2.9198939955676906e-005</threshold>
            <left_val>-0.1393716931343079</left_val>
            <right_val>0.2153719067573547</right_val></_></_>
        <_>
          <_>
            <feature>
              <rects>
                <_>
                  9 14 2 1 -1.</_>
                <_>
                  10 14 1 1 2.</_></rects>
              <tilted>0</tilted></feature>
            <threshold>-1.1419469956308603e-005</threshold>
            <left_val>0.2724399864673615</left_val>
            <right_val>-0.2834106087684631</right_val></_></_>
        <_>
          <_>
            <feature>
              <rects>
                <_>
                  19 12 2 4 -1.</_>
                <_>
                  19 13 2 2 2.</_></rects>
              <tilted>0</tilted></feature>
            <threshold>-4.0080278995446861e-004</threshold>
            <left_val>0.2387385070323944</left_val>
            <right_val>-0.1500104963779450</right_val></_></_>
        <_>
          <_>
            <feature>
              <rects>
                <_>
                  11 12 2 4 -1.</_>
                <_>
                  11 13 2 2 2.</_></rects>
              <tilted>0</tilted></feature>
            <threshold>9.4442401314154267e-004</threshold>
            <left_val>-0.1565323024988174</left_val>
            <right_val>0.5198047757148743</right_val></_></_>
        <_>
          <_>
            <feature>
              <rects>
                <_>
                  15 5 2 2 -1.</_>
                <_>
                  15 6 2 1 2.</_></rects>
              <tilted>0</tilted></feature>
            <threshold>-2.5440320314373821e-005</threshold>
            <left_val>0.2854661047458649</left_val>
            <right_val>-0.2853569090366364</right_val></_></_>
        <_>
          <_>
            <feature>
              <rects>
                <_>
                  10 3 12 2 -1.</_>
                <_>
                  14 3 4 2 3.</_></rects>
              <tilted>0</tilted></feature>
            <threshold>-9.5861414447426796e-003</threshold>
            <left_val>0.5580986142158508</left_val>
            <right_val>-0.1803769022226334</right_val></_></_></trees>
      <stage_threshold>-1.2962989807128906</stage_threshold>
      <parent>4</parent>
      <next>-1</next></_>
    <_>
      <trees>
        <_>
          <_>
            <feature>
              <rects>
                <_>
                  6 15 2 1 -1.</_>
                <_>
                  7 15 1 1 2.</_></rects>
              <tilted>0</tilted></feature>
            <threshold>-2.8710479455185123e-005</threshold>
            <left_val>0.2428857982158661</left_val>
            <right_val>-0.3259643018245697</right_val></_></_>
        <_>
          <_>
            <feature>
              <rects>
                <_>
                  16 2 4 7 -1.</_>
                <_>
                  17 3 2 7 2.</_></rects>
              <tilted>1</tilted></feature>
            <threshold>9.8333414644002914e-003</threshold>
            <left_val>-0.0765959918498993</left_val>
            <right_val>0.3968228101730347</right_val></_></_>
        <_>
          <_>
            <feature>
              <rects>
                <_>
                  4 8 22 4 -1.</_>
                <_>
                  15 8 11 4 2.</_></rects>
              <tilted>0</tilted></feature>
            <threshold>0.0186602603644133</threshold>
            <left_val>-0.2648411989212036</left_val>
            <right_val>0.3564940094947815</right_val></_></_>
        <_>
          <_>
            <feature>
              <rects>
                <_>
                  16 19 3 1 -1.</_>
                <_>
                  17 19 1 1 3.</_></rects>
              <tilted>0</tilted></feature>
            <threshold>2.3864720424171537e-004</threshold>
            <left_val>0.1376429945230484</left_val>
            <right_val>-0.5505303740501404</right_val></_></_>
        <_>
          <_>
            <feature>
              <rects>
                <_>
                  14 18 4 6 -1.</_>
                <_>
                  14 21 4 3 2.</_></rects>
              <tilted>0</tilted></feature>
            <threshold>0.0109121901914477</threshold>
            <left_val>-0.1406378000974655</left_val>
            <right_val>0.5129435062408447</right_val></_></_>
        <_>
          <_>
            <feature>
              <rects>
                <_>
                  25 10 2 8 -1.</_>
                <_>
                  26 10 1 4 2.</_>
                <_>
                  25 14 1 4 2.</_></rects>
              <tilted>0</tilted></feature>
            <threshold>-1.1261180043220520e-003</threshold>
            <left_val>0.2120970040559769</left_val>
            <right_val>-0.0839585885405540</right_val></_></_>
        <_>
          <_>
            <feature>
              <rects>
                <_>
                  0 1 3 3 -1.</_>
                <_>
                  0 2 3 1 3.</_></rects>
              <tilted>0</tilted></feature>
            <threshold>7.9183827619999647e-004</threshold>
            <left_val>0.1101152002811432</left_val>
            <right_val>-0.7268702983856201</right_val></_></_>
        <_>
          <_>
            <feature>
              <rects>
                <_>
                  29 14 1 2 -1.</_>
                <_>
                  29 15 1 1 2.</_></rects>
              <tilted>0</tilted></feature>
            <threshold>-2.7940479412791319e-005</threshold>
            <left_val>0.1951781064271927</left_val>
            <right_val>-0.1592877954244614</right_val></_></_>
        <_>
          <_>
            <feature>
              <rects>
                <_>
                  2 14 1 2 -1.</_>
                <_>
                  2 15 1 1 2.</_></rects>
              <tilted>0</tilted></feature>
            <threshold>-2.1529949663090520e-005</threshold>
            <left_val>0.3349063992500305</left_val>
            <right_val>-0.2466896027326584</right_val></_></_>
        <_>
          <_>
            <feature>
              <rects>
                <_>
                  18 9 8 4 -1.</_>
                <_>
                  18 9 4 4 2.</_></rects>
              <tilted>1</tilted></feature>
            <threshold>0.0170271396636963</threshold>
            <left_val>0.1224419996142387</left_val>
            <right_val>-0.3092795014381409</right_val></_></_>
        <_>
          <_>
            <feature>
              <rects>
                <_>
                  5 12 2 4 -1.</_>
                <_>
                  5 12 1 2 2.</_>
                <_>
                  6 14 1 2 2.</_></rects>
              <tilted>0</tilted></feature>
            <threshold>2.8091139392927289e-004</threshold>
            <left_val>-0.2056536972522736</left_val>
            <right_val>0.4032795131206513</right_val></_></_>
        <_>
          <_>
            <feature>
              <rects>
                <_>
                  16 1 4 8 -1.</_>
                <_>
                  17 2 2 8 2.</_></rects>
              <tilted>1</tilted></feature>
            <threshold>7.2542540729045868e-003</threshold>
            <left_val>-0.0505005195736885</left_val>
            <right_val>0.1944333016872406</right_val></_></_>
        <_>
          <_>
            <feature>
              <rects>
                <_>
                  9 6 14 2 -1.</_>
                <_>
                  9 7 14 1 2.</_></rects>
              <tilted>0</tilted></feature>
            <threshold>-3.2646660692989826e-003</threshold>
            <left_val>0.4230791032314301</left_val>
            <right_val>-0.1950542926788330</right_val></_></_>
        <_>
          <_>
            <feature>
              <rects>
                <_>
                  0 11 32 13 -1.</_>
                <_>
                  0 11 16 13 2.</_></rects>
              <tilted>0</tilted></feature>
            <threshold>0.2944022119045258</threshold>
            <left_val>-0.1879436969757080</left_val>
            <right_val>0.4599744975566864</right_val></_></_>
        <_>
          <_>
            <feature>
              <rects>
                <_>
                  14 5 2 2 -1.</_>
                <_>
                  14 5 1 1 2.</_>
                <_>
                  15 6 1 1 2.</_></rects>
              <tilted>0</tilted></feature>
            <threshold>1.1046689905924723e-005</threshold>
            <left_val>-0.2180065065622330</left_val>
            <right_val>0.3630762100219727</right_val></_></_>
        <_>
          <_>
            <feature>
              <rects>
                <_>
                  22 11 8 6 -1.</_>
                <_>
                  26 11 4 3 2.</_>
                <_>
                  22 14 4 3 2.</_></rects>
              <tilted>0</tilted></feature>
            <threshold>-0.0101613104343414</threshold>
            <left_val>0.3061349987983704</left_val>
            <right_val>-0.0527332685887814</right_val></_></_>
        <_>
          <_>
            <feature>
              <rects>
                <_>
                  2 11 8 6 -1.</_>
                <_>
                  2 11 4 3 2.</_>
                <_>
                  6 14 4 3 2.</_></rects>
              <tilted>0</tilted></feature>
            <threshold>-7.3797400109469891e-003</threshold>
            <left_val>0.4829911887645721</left_val>
            <right_val>-0.1610666066408157</right_val></_></_>
        <_>
          <_>
            <feature>
              <rects>
                <_>
                  25 20 6 3 -1.</_>
                <_>
                  25 21 6 1 3.</_></rects>
              <tilted>0</tilted></feature>
            <threshold>-7.4299559928476810e-003</threshold>
            <left_val>-0.9303910732269287</left_val>
            <right_val>0.0451397188007832</right_val></_></_>
        <_>
          <_>
            <feature>
              <rects>
                <_>
                  5 7 4 10 -1.</_>
                <_>
                  5 7 2 5 2.</_>
                <_>
                  7 12 2 5 2.</_></rects>
              <tilted>0</tilted></feature>
            <threshold>4.2347880080342293e-003</threshold>
            <left_val>-0.1460848003625870</left_val>
            <right_val>0.5131018757820129</right_val></_></_>
        <_>
          <_>
            <feature>
              <rects>
                <_>
                  25 7 2 2 -1.</_>
                <_>
                  25 7 1 2 2.</_></rects>
              <tilted>1</tilted></feature>
            <threshold>-4.7766910865902901e-003</threshold>
            <left_val>0.5168353915214539</left_val>
            <right_val>1.2835839879699051e-004</right_val></_></_>
        <_>
          <_>
            <feature>
              <rects>
                <_>
                  6 7 9 3 -1.</_>
                <_>
                  5 8 9 1 3.</_></rects>
              <tilted>1</tilted></feature>
            <threshold>-4.5243129134178162e-003</threshold>
            <left_val>0.4641380906105042</left_val>
            <right_val>-0.1674824953079224</right_val></_></_>
        <_>
          <_>
            <feature>
              <rects>
                <_>
                  25 20 7 3 -1.</_>
                <_>
                  25 21 7 1 3.</_></rects>
              <tilted>0</tilted></feature>
            <threshold>1.5213839942589402e-003</threshold>
            <left_val>0.1128726005554199</left_val>
            <right_val>-0.4133805930614471</right_val></_></_>
        <_>
          <_>
            <feature>
              <rects>
                <_>
                  14 7 2 2 -1.</_>
                <_>
                  14 7 1 1 2.</_>
                <_>
                  15 8 1 1 2.</_></rects>
              <tilted>0</tilted></feature>
            <threshold>2.5432089387322776e-005</threshold>
            <left_val>-0.2189507931470871</left_val>
            <right_val>0.3592382967472076</right_val></_></_>
        <_>
          <_>
            <feature>
              <rects>
                <_>
                  16 0 2 5 -1.</_>
                <_>
                  16 0 1 5 2.</_></rects>
              <tilted>1</tilted></feature>
            <threshold>6.5213087946176529e-003</threshold>
            <left_val>-0.0273763295263052</left_val>
            <right_val>0.1676155030727387</right_val></_></_>
        <_>
          <_>
            <feature>
              <rects>
                <_>
                  16 0 5 2 -1.</_>
                <_>
                  16 0 5 1 2.</_></rects>
              <tilted>1</tilted></feature>
            <threshold>-9.1231968253850937e-003</threshold>
            <left_val>0.9347345232963562</left_val>
            <right_val>-0.0737388432025909</right_val></_></_>
        <_>
          <_>
            <feature>
              <rects>
                <_>
                  13 5 6 4 -1.</_>
                <_>
                  16 5 3 2 2.</_>
                <_>
                  13 7 3 2 2.</_></rects>
              <tilted>0</tilted></feature>
            <threshold>5.0770528614521027e-003</threshold>
            <left_val>-0.1099667027592659</left_val>
            <right_val>0.6149548292160034</right_val></_></_>
        <_>
          <_>
            <feature>
              <rects>
                <_>
                  13 15 1 2 -1.</_>
                <_>
                  13 16 1 1 2.</_></rects>
              <tilted>0</tilted></feature>
            <threshold>7.0821581175550818e-005</threshold>
            <left_val>-0.2400248050689697</left_val>
            <right_val>0.3273543119430542</right_val></_></_></trees>
      <stage_threshold>-1.0311059951782227</stage_threshold>
      <parent>5</parent>
      <next>-1</next></_>
    <_>
      <trees>
        <_>
          <_>
            <feature>
              <rects>
                <_>
                  12 7 4 6 -1.</_>
                <_>
                  12 9 4 2 3.</_></rects>
              <tilted>0</tilted></feature>
            <threshold>-8.7944697588682175e-003</threshold>
            <left_val>0.5075709223747253</left_val>
            <right_val>-0.1654381006956101</right_val></_></_>
        <_>
          <_>
            <feature>
              <rects>
                <_>
                  22 14 2 1 -1.</_>
                <_>
                  22 14 1 1 2.</_></rects>
              <tilted>0</tilted></feature>
            <threshold>1.4348269905894995e-003</threshold>
            <left_val>0.0320133902132511</left_val>
            <right_val>-0.7926349043846130</right_val></_></_>
        <_>
          <_>
            <feature>
              <rects>
                <_>
                  5 5 2 14 -1.</_>
                <_>
                  6 5 1 14 2.</_></rects>
              <tilted>0</tilted></feature>
            <threshold>-1.7462139949202538e-003</threshold>
            <left_val>0.2921727001667023</left_val>
            <right_val>-0.2568644881248474</right_val></_></_>
        <_>
          <_>
            <feature>
              <rects>
                <_>
                  18 15 4 5 -1.</_>
                <_>
                  18 15 2 5 2.</_></rects>
              <tilted>0</tilted></feature>
            <threshold>0.0100665399804711</threshold>
            <left_val>0.0107212001457810</left_val>
            <right_val>-0.7741594910621643</right_val></_></_>
        <_>
          <_>
            <feature>
              <rects>
                <_>
                  10 15 4 5 -1.</_>
                <_>
                  12 15 2 5 2.</_></rects>
              <tilted>0</tilted></feature>
            <threshold>-9.6929585561156273e-003</threshold>
            <left_val>-0.8658537864685059</left_val>
            <right_val>0.0842508971691132</right_val></_></_>
        <_>
          <_>
            <feature>
              <rects>
                <_>
                  27 0 2 2 -1.</_>
                <_>
                  27 1 2 1 2.</_></rects>
              <tilted>0</tilted></feature>
            <threshold>-1.1803980451077223e-003</threshold>
            <left_val>-0.5723773241043091</left_val>
            <right_val>0.0403772518038750</right_val></_></_>
        <_>
          <_>
            <feature>
              <rects>
                <_>
                  16 5 16 1 -1.</_>
                <_>
                  16 5 8 1 2.</_></rects>
              <tilted>1</tilted></feature>
            <threshold>9.9823642522096634e-003</threshold>
            <left_val>-0.2468615025281906</left_val>
            <right_val>0.2991397082805634</right_val></_></_>
        <_>
          <_>
            <feature>
              <rects>
                <_>
                  22 14 2 1 -1.</_>
                <_>
                  22 14 1 1 2.</_></rects>
              <tilted>0</tilted></feature>
            <threshold>-2.1196130546741188e-005</threshold>
            <left_val>0.1822354942560196</left_val>
            <right_val>-0.1351225972175598</right_val></_></_>
        <_>
          <_>
            <feature>
              <rects>
                <_>
                  8 14 2 1 -1.</_>
                <_>
                  9 14 1 1 2.</_></rects>
              <tilted>0</tilted></feature>
            <threshold>-1.1880950296472292e-005</threshold>
            <left_val>0.2461674958467484</left_val>
            <right_val>-0.3466441035270691</right_val></_></_>
        <_>
          <_>
            <feature>
              <rects>
                <_>
                  6 6 26 11 -1.</_>
                <_>
                  6 6 13 11 2.</_></rects>
              <tilted>0</tilted></feature>
            <threshold>-0.1374085992574692</threshold>
            <left_val>0.2181082963943481</left_val>
            <right_val>-0.1038566976785660</right_val></_></_>
        <_>
          <_>
            <feature>
              <rects>
                <_>
                  11 14 2 1 -1.</_>
                <_>
                  12 14 1 1 2.</_></rects>
              <tilted>0</tilted></feature>
            <threshold>-2.1185089281061664e-005</threshold>
            <left_val>0.2782624959945679</left_val>
            <right_val>-0.2600643932819367</right_val></_></_>
        <_>
          <_>
            <feature>
              <rects>
                <_>
                  29 6 3 9 -1.</_>
                <_>
                  30 7 1 9 3.</_></rects>
              <tilted>1</tilted></feature>
            <threshold>-4.2047491297125816e-003</threshold>
            <left_val>0.3448602855205536</left_val>
            <right_val>-0.0897400900721550</right_val></_></_>
        <_>
          <_>
            <feature>
              <rects>
                <_>
                  3 6 9 3 -1.</_>
                <_>
                  2 7 9 1 3.</_></rects>
              <tilted>1</tilted></feature>
            <threshold>-7.8661059960722923e-003</threshold>
            <left_val>0.7118766903877258</left_val>
            <right_val>-0.1149450987577438</right_val></_></_>
        <_>
          <_>
            <feature>
              <rects>
                <_>
                  26 10 6 10 -1.</_>
                <_>
                  29 10 3 5 2.</_>
                <_>
                  26 15 3 5 2.</_></rects>
              <tilted>0</tilted></feature>
            <threshold>-0.0114555303007364</threshold>
            <left_val>0.5344612002372742</left_val>
            <right_val>-0.0975623428821564</right_val></_></_>
        <_>
          <_>
            <feature>
              <rects>
                <_>
                  0 23 2 1 -1.</_>
                <_>
                  1 23 1 1 2.</_></rects>
              <tilted>0</tilted></feature>
            <threshold>-2.1401809135568328e-005</threshold>
            <left_val>0.2923080027103424</left_val>
            <right_val>-0.2756944000720978</right_val></_></_>
        <_>
          <_>
            <feature>
              <rects>
                <_>
                  15 3 4 4 -1.</_>
                <_>
                  17 3 2 2 2.</_>
                <_>
                  15 5 2 2 2.</_></rects>
              <tilted>0</tilted></feature>
            <threshold>2.9052819591015577e-003</threshold>
            <left_val>-0.1208876967430115</left_val>
            <right_val>0.5556328296661377</right_val></_></_>
        <_>
          <_>
            <feature>
              <rects>
                <_>
                  0 5 26 15 -1.</_>
                <_>
                  13 5 13 15 2.</_></rects>
              <tilted>0</tilted></feature>
            <threshold>0.2391459047794342</threshold>
            <left_val>-0.0855713263154030</left_val>
            <right_val>0.7839903831481934</right_val></_></_>
        <_>
          <_>
            <feature>
              <rects>
                <_>
                  18 0 14 23 -1.</_>
                <_>
                  18 0 7 23 2.</_></rects>
              <tilted>0</tilted></feature>
            <threshold>0.2581954896450043</threshold>
            <left_val>0.0452547296881676</left_val>
            <right_val>-0.8058729767799377</right_val></_></_>
        <_>
          <_>
            <feature>
              <rects>
                <_>
                  0 0 14 23 -1.</_>
                <_>
                  7 0 7 23 2.</_></rects>
              <tilted>0</tilted></feature>
            <threshold>-0.0855533331632614</threshold>
            <left_val>0.2343658059835434</left_val>
            <right_val>-0.4261865019798279</right_val></_></_>
        <_>
          <_>
            <feature>
              <rects>
                <_>
                  18 22 2 1 -1.</_>
                <_>
                  18 22 1 1 2.</_></rects>
              <tilted>0</tilted></feature>
            <threshold>2.1567400835920125e-005</threshold>
            <left_val>-0.1332212984561920</left_val>
            <right_val>0.1951355040073395</right_val></_></_>
        <_>
          <_>
            <feature>
              <rects>
                <_>
                  0 6 20 17 -1.</_>
                <_>
                  5 6 10 17 2.</_></rects>
              <tilted>0</tilted></feature>
            <threshold>-0.1308593004941940</threshold>
            <left_val>-0.6289054155349731</left_val>
            <right_val>0.1315198987722397</right_val></_></_>
        <_>
          <_>
            <feature>
              <rects>
                <_>
                  20 4 8 4 -1.</_>
                <_>
                  19 5 8 2 2.</_></rects>
              <tilted>1</tilted></feature>
            <threshold>6.6798259504139423e-003</threshold>
            <left_val>-0.0873816236853600</left_val>
            <right_val>0.2241899967193604</right_val></_></_>
        <_>
          <_>
            <feature>
              <rects>
                <_>
                  12 4 4 8 -1.</_>
                <_>
                  13 5 2 8 2.</_></rects>
              <tilted>1</tilted></feature>
            <threshold>-4.1853361763060093e-003</threshold>
            <left_val>0.4108183085918427</left_val>
            <right_val>-0.1829988062381744</right_val></_></_>
        <_>
          <_>
            <feature>
              <rects>
                <_>
                  26 8 6 12 -1.</_>
                <_>
                  29 8 3 6 2.</_>
                <_>
                  26 14 3 6 2.</_></rects>
              <tilted>0</tilted></feature>
            <threshold>-0.0122747495770454</threshold>
            <left_val>0.3818329870700836</left_val>
            <right_val>-0.0937125608325005</right_val></_></_>
        <_>
          <_>
            <feature>
              <rects>
                <_>
                  0 8 6 12 -1.</_>
                <_>
                  0 8 3 6 2.</_>
                <_>
                  3 14 3 6 2.</_></rects>
              <tilted>0</tilted></feature>
            <threshold>-6.2945671379566193e-003</threshold>
            <left_val>0.4137204885482788</left_val>
            <right_val>-0.1936873942613602</right_val></_></_></trees>
      <stage_threshold>-0.9613670706748962</stage_threshold>
      <parent>6</parent>
      <next>-1</next></_>
    <_>
      <trees>
        <_>
          <_>
            <feature>
              <rects>
                <_>
                  12 18 3 1 -1.</_>
                <_>
                  13 18 1 1 3.</_></rects>
              <tilted>0</tilted></feature>
            <threshold>-3.1501360354013741e-004</threshold>
            <left_val>-0.6650630235671997</left_val>
            <right_val>0.1228325963020325</right_val></_></_>
        <_>
          <_>
            <feature>
              <rects>
                <_>
                  13 0 6 8 -1.</_>
                <_>
                  13 4 6 4 2.</_></rects>
              <tilted>0</tilted></feature>
            <threshold>0.0355571694672108</threshold>
            <left_val>-0.1282245069742203</left_val>
            <right_val>0.6514238715171814</right_val></_></_>
        <_>
          <_>
            <feature>
              <rects>
                <_>
                  1 8 9 16 -1.</_>
                <_>
                  1 16 9 8 2.</_></rects>
              <tilted>0</tilted></feature>
            <threshold>-0.1085672974586487</threshold>
            <left_val>-0.7127609848976135</left_val>
            <right_val>0.1127623021602631</right_val></_></_>
        <_>
          <_>
            <feature>
              <rects>
                <_>
                  31 13 1 2 -1.</_>
                <_>
                  31 14 1 1 2.</_></rects>
              <tilted>0</tilted></feature>
            <threshold>-1.1041139950975776e-003</threshold>
            <left_val>-0.6061239838600159</left_val>
            <right_val>0.0270908493548632</right_val></_></_>
        <_>
          <_>
            <feature>
              <rects>
                <_>
                  0 13 1 2 -1.</_>
                <_>
                  0 14 1 1 2.</_></rects>
              <tilted>0</tilted></feature>
            <threshold>-1.0811099855345674e-005</threshold>
            <left_val>0.3288325965404511</left_val>
            <right_val>-0.2397648990154266</right_val></_></_>
        <_>
          <_>
            <feature>
              <rects>
                <_>
                  17 12 15 11 -1.</_>
                <_>
                  22 12 5 11 3.</_></rects>
              <tilted>0</tilted></feature>
            <threshold>-0.0723152011632919</threshold>
            <left_val>-0.5221564769744873</left_val>
            <right_val>0.0207879394292831</right_val></_></_>
        <_>
          <_>
            <feature>
              <rects>
                <_>
                  0 12 15 11 -1.</_>
                <_>
                  5 12 5 11 3.</_></rects>
              <tilted>0</tilted></feature>
            <threshold>-0.0729843005537987</threshold>
            <left_val>-0.6571202874183655</left_val>
            <right_val>0.1188355013728142</right_val></_></_>
        <_>
          <_>
            <feature>
              <rects>
                <_>
                  24 14 2 1 -1.</_>
                <_>
                  24 14 1 1 2.</_></rects>
              <tilted>0</tilted></feature>
            <threshold>1.1001149687217548e-005</threshold>
            <left_val>-0.1731597930192947</left_val>
            <right_val>0.2412021011114121</right_val></_></_>
        <_>
          <_>
            <feature>
              <rects>
                <_>
                  6 14 2 1 -1.</_>
                <_>
                  7 14 1 1 2.</_></rects>
              <tilted>0</tilted></feature>
            <threshold>-5.2456100092967972e-005</threshold>
            <left_val>0.2389477938413620</left_val>
            <right_val>-0.3412089049816132</right_val></_></_>
        <_>
          <_>
            <feature>
              <rects>
                <_>
                  8 4 16 2 -1.</_>
                <_>
                  8 5 16 1 2.</_></rects>
              <tilted>0</tilted></feature>
            <threshold>-1.9713970832526684e-003</threshold>
            <left_val>0.3835232853889465</left_val>
            <right_val>-0.1939783990383148</right_val></_></_>
        <_>
          <_>
            <feature>
              <rects>
                <_>
                  10 2 6 12 -1.</_>
                <_>
                  12 6 2 4 9.</_></rects>
              <tilted>0</tilted></feature>
            <threshold>0.0577667988836765</threshold>
            <left_val>-0.1181553006172180</left_val>
            <right_val>0.7528641223907471</right_val></_></_>
        <_>
          <_>
            <feature>
              <rects>
                <_>
                  10 9 12 4 -1.</_>
                <_>
                  16 9 6 2 2.</_>
                <_>
                  10 11 6 2 2.</_></rects>
              <tilted>0</tilted></feature>
            <threshold>6.2706219032406807e-003</threshold>
            <left_val>-0.1740842014551163</left_val>
            <right_val>0.4382323026657105</right_val></_></_>
        <_>
          <_>
            <feature>
              <rects>
                <_>
                  0 3 1 4 -1.</_>
                <_>
                  0 5 1 2 2.</_></rects>
              <tilted>0</tilted></feature>
            <threshold>-1.1112369975307956e-005</threshold>
            <left_val>0.3104845881462097</left_val>
            <right_val>-0.2420496940612793</right_val></_></_>
        <_>
          <_>
            <feature>
              <rects>
                <_>
                  30 0 1 10 -1.</_>
                <_>
                  30 5 1 5 2.</_></rects>
              <tilted>0</tilted></feature>
            <threshold>0.0104561401531100</threshold>
            <left_val>-0.0312874205410481</left_val>
            <right_val>0.3874492943286896</right_val></_></_>
        <_>
          <_>
            <feature>
              <rects>
                <_>
                  1 0 1 10 -1.</_>
                <_>
                  1 5 1 5 2.</_></rects>
              <tilted>0</tilted></feature>
            <threshold>-5.5612879805266857e-003</threshold>
            <left_val>-0.7730258703231812</left_val>
            <right_val>0.0997809469699860</right_val></_></_>
        <_>
          <_>
            <feature>
              <rects>
                <_>
                  18 18 3 1 -1.</_>
                <_>
                  19 18 1 1 3.</_></rects>
              <tilted>0</tilted></feature>
            <threshold>-2.9008410638198256e-004</threshold>
            <left_val>-0.5611649155616760</left_val>
            <right_val>0.0725148096680641</right_val></_></_>
        <_>
          <_>
            <feature>
              <rects>
                <_>
                  0 11 8 8 -1.</_>
                <_>
                  0 11 4 4 2.</_>
                <_>
                  4 15 4 4 2.</_></rects>
              <tilted>0</tilted></feature>
            <threshold>-0.0112669002264738</threshold>
            <left_val>0.4506669044494629</left_val>
            <right_val>-0.1629325002431870</right_val></_></_>
        <_>
          <_>
            <feature>
              <rects>
                <_>
                  26 14 2 2 -1.</_>
                <_>
                  27 14 1 1 2.</_>
                <_>
                  26 15 1 1 2.</_></rects>
              <tilted>0</tilted></feature>
            <threshold>-2.5948629627237096e-005</threshold>
            <left_val>0.2026938050985336</left_val>
            <right_val>-0.0993651077151299</right_val></_></_>
        <_>
          <_>
            <feature>
              <rects>
                <_>
                  4 14 2 2 -1.</_>
                <_>
                  4 14 1 1 2.</_>
                <_>
                  5 15 1 1 2.</_></rects>
              <tilted>0</tilted></feature>
            <threshold>1.1046689905924723e-005</threshold>
            <left_val>-0.2297783046960831</left_val>
            <right_val>0.3424766957759857</right_val></_></_>
        <_>
          <_>
            <feature>
              <rects>
                <_>
                  19 14 4 8 -1.</_>
                <_>
                  20 14 2 8 2.</_></rects>
              <tilted>0</tilted></feature>
            <threshold>-3.8482008967548609e-003</threshold>
            <left_val>-0.4776459932327271</left_val>
            <right_val>0.0256090201437473</right_val></_></_>
        <_>
          <_>
            <feature>
              <rects>
                <_>
                  9 14 4 8 -1.</_>
                <_>
                  10 14 2 8 2.</_></rects>
              <tilted>0</tilted></feature>
            <threshold>3.4975300077348948e-003</threshold>
            <left_val>0.1021881029009819</left_val>
            <right_val>-0.7176244258880615</right_val></_></_>
        <_>
          <_>
            <feature>
              <rects>
                <_>
                  26 6 2 1 -1.</_>
                <_>
                  26 6 1 1 2.</_></rects>
              <tilted>1</tilted></feature>
            <threshold>2.4100351147353649e-003</threshold>
            <left_val>0.0273698903620243</left_val>
            <right_val>-0.5343239903450012</right_val></_></_>
        <_>
          <_>
            <feature>
              <rects>
                <_>
                  13 0 4 12 -1.</_>
                <_>
                  13 0 4 6 2.</_></rects>
              <tilted>1</tilted></feature>
            <threshold>-0.0509156584739685</threshold>
            <left_val>-0.4451246857643127</left_val>
            <right_val>0.1633111983537674</right_val></_></_></trees>
      <stage_threshold>-0.9889004826545715</stage_threshold>
      <parent>7</parent>
      <next>-1</next></_>
    <_>
      <trees>
        <_>
          <_>
            <feature>
              <rects>
                <_>
                  9 0 6 12 -1.</_>
                <_>
                  11 4 2 4 9.</_></rects>
              <tilted>0</tilted></feature>
            <threshold>0.0822735279798508</threshold>
            <left_val>-0.0911001414060593</left_val>
            <right_val>0.8928949236869812</right_val></_></_>
        <_>
          <_>
            <feature>
              <rects>
                <_>
                  29 19 3 2 -1.</_>
                <_>
                  30 20 1 2 3.</_></rects>
              <tilted>1</tilted></feature>
            <threshold>-1.7771349521353841e-003</threshold>
            <left_val>-0.3120492100715637</left_val>
            <right_val>0.0314757302403450</right_val></_></_>
        <_>
          <_>
            <feature>
              <rects>
                <_>
                  13 5 6 4 -1.</_>
                <_>
                  13 5 3 2 2.</_>
                <_>
                  16 7 3 2 2.</_></rects>
              <tilted>0</tilted></feature>
            <threshold>-6.1136852018535137e-003</threshold>
            <left_val>0.6048457026481628</left_val>
            <right_val>-0.1010721996426582</right_val></_></_>
        <_>
          <_>
            <feature>
              <rects>
                <_>
                  16 5 1 2 -1.</_>
                <_>
                  16 6 1 1 2.</_></rects>
              <tilted>0</tilted></feature>
            <threshold>-1.1726840057235677e-005</threshold>
            <left_val>0.2069527953863144</left_val>
            <right_val>-0.2451086938381195</right_val></_></_>
        <_>
          <_>
            <feature>
              <rects>
                <_>
                  14 1 14 8 -1.</_>
                <_>
                  14 1 14 4 2.</_></rects>
              <tilted>1</tilted></feature>
            <threshold>4.3733650818467140e-003</threshold>
            <left_val>-0.3725109100341797</left_val>
            <right_val>0.1952785998582840</right_val></_></_>
        <_>
          <_>
            <feature>
              <rects>
                <_>
                  19 17 2 1 -1.</_>
                <_>
                  19 17 1 1 2.</_></rects>
              <tilted>0</tilted></feature>
            <threshold>2.1714949980378151e-005</threshold>
            <left_val>-0.0873336419463158</left_val>
            <right_val>0.1888491958379746</right_val></_></_>
        <_>
          <_>
            <feature>
              <rects>
                <_>
                  11 17 2 1 -1.</_>
                <_>
                  12 17 1 1 2.</_></rects>
              <tilted>0</tilted></feature>
            <threshold>-2.1604879293590784e-005</threshold>
            <left_val>0.2715454101562500</left_val>
            <right_val>-0.2742832899093628</right_val></_></_>
        <_>
          <_>
            <feature>
              <rects>
                <_>
                  15 1 5 6 -1.</_>
                <_>
                  15 3 5 2 3.</_></rects>
              <tilted>0</tilted></feature>
            <threshold>-4.4255191460251808e-003</threshold>
            <left_val>0.3842070102691650</left_val>
            <right_val>-0.1056654006242752</right_val></_></_>
        <_>
          <_>
            <feature>
              <rects>
                <_>
                  9 4 14 2 -1.</_>
                <_>
                  9 4 7 1 2.</_>
                <_>
                  16 5 7 1 2.</_></rects>
              <tilted>0</tilted></feature>
            <threshold>-2.2338819690048695e-003</threshold>
            <left_val>0.4742071032524109</left_val>
            <right_val>-0.1599718034267426</right_val></_></_>
        <_>
          <_>
            <feature>
              <rects>
                <_>
                  31 12 1 2 -1.</_>
                <_>
                  31 12 1 1 2.</_></rects>
              <tilted>1</tilted></feature>
            <threshold>-3.7937439046800137e-003</threshold>
            <left_val>-0.7114679217338562</left_val>
            <right_val>0.0213614404201508</right_val></_></_>
        <_>
          <_>
            <feature>
              <rects>
                <_>
                  14 0 2 1 -1.</_>
                <_>
                  15 0 1 1 2.</_></rects>
              <tilted>0</tilted></feature>
            <threshold>-1.0811099855345674e-005</threshold>
            <left_val>0.2762089967727661</left_val>
            <right_val>-0.2403644025325775</right_val></_></_>
        <_>
          <_>
            <feature>
              <rects>
                <_>
                  20 2 8 6 -1.</_>
                <_>
                  24 2 4 3 2.</_>
                <_>
                  20 5 4 3 2.</_></rects>
              <tilted>0</tilted></feature>
            <threshold>-6.8014748394489288e-003</threshold>
            <left_val>0.4197706878185272</left_val>
            <right_val>-0.1488461941480637</right_val></_></_>
        <_>
          <_>
            <feature>
              <rects>
                <_>
                  1 0 1 8 -1.</_>
                <_>
                  1 4 1 4 2.</_></rects>
              <tilted>0</tilted></feature>
            <threshold>-4.6917158178985119e-003</threshold>
            <left_val>-0.8490567207336426</left_val>
            <right_val>0.0886958166956902</right_val></_></_>
        <_>
          <_>
            <feature>
              <rects>
                <_>
                  21 8 10 16 -1.</_>
                <_>
                  21 16 10 8 2.</_></rects>
              <tilted>0</tilted></feature>
            <threshold>-0.1475303024053574</threshold>
            <left_val>0.3276672959327698</left_val>
            <right_val>-0.0727003365755081</right_val></_></_>
        <_>
          <_>
            <feature>
              <rects>
                <_>
                  16 17 6 1 -1.</_>
                <_>
                  16 17 3 1 2.</_></rects>
              <tilted>1</tilted></feature>
            <threshold>-8.6357835680246353e-003</threshold>
            <left_val>0.6015198230743408</left_val>
            <right_val>-0.1236398965120316</right_val></_></_>
        <_>
          <_>
            <feature>
              <rects>
                <_>
                  16 13 1 10 -1.</_>
                <_>
                  16 13 1 5 2.</_></rects>
              <tilted>1</tilted></feature>
            <threshold>-8.3379177376627922e-003</threshold>
            <left_val>0.1118448004126549</left_val>
            <right_val>-0.0586279816925526</right_val></_></_>
        <_>
          <_>
            <feature>
              <rects>
                <_>
                  16 13 10 1 -1.</_>
                <_>
                  16 13 5 1 2.</_></rects>
              <tilted>1</tilted></feature>
            <threshold>2.4820230901241302e-003</threshold>
            <left_val>-0.2613373994827271</left_val>
            <right_val>0.3295474946498871</right_val></_></_>
        <_>
          <_>
            <feature>
              <rects>
                <_>
                  13 11 7 12 -1.</_>
                <_>
                  13 17 7 6 2.</_></rects>
              <tilted>0</tilted></feature>
            <threshold>1.2389189796522260e-003</threshold>
            <left_val>-0.2605186104774475</left_val>
            <right_val>0.2560456991195679</right_val></_></_>
        <_>
          <_>
            <feature>
              <rects>
                <_>
                  10 12 6 8 -1.</_>
                <_>
                  12 12 2 8 3.</_></rects>
              <tilted>0</tilted></feature>
            <threshold>-9.2004416510462761e-003</threshold>
            <left_val>-0.6410871744155884</left_val>
            <right_val>0.1121459975838661</right_val></_></_>
        <_>
          <_>
            <feature>
              <rects>
                <_>
                  22 4 8 6 -1.</_>
                <_>
                  24 6 4 6 2.</_></rects>
              <tilted>1</tilted></feature>
            <threshold>0.0362120382487774</threshold>
            <left_val>-0.0758036673069000</left_val>
            <right_val>0.3542416095733643</right_val></_></_>
        <_>
          <_>
            <feature>
              <rects>
                <_>
                  15 0 5 4 -1.</_>
                <_>
                  14 1 5 2 2.</_></rects>
              <tilted>1</tilted></feature>
            <threshold>0.0111333001405001</threshold>
            <left_val>-0.0943281278014183</left_val>
            <right_val>0.7198925018310547</right_val></_></_>
        <_>
          <_>
            <feature>
              <rects>
                <_>
                  29 17 3 2 -1.</_>
                <_>
                  30 18 1 2 3.</_></rects>
              <tilted>1</tilted></feature>
            <threshold>-3.9526578038930893e-003</threshold>
            <left_val>-0.5683423876762390</left_val>
            <right_val>0.0467432104051113</right_val></_></_>
        <_>
          <_>
            <feature>
              <rects>
                <_>
                  6 15 6 2 -1.</_>
                <_>
                  6 15 6 1 2.</_></rects>
              <tilted>1</tilted></feature>
            <threshold>-2.9067898867651820e-004</threshold>
            <left_val>-0.2066956013441086</left_val>
            <right_val>0.3445773124694824</right_val></_></_>
        <_>
          <_>
            <feature>
              <rects>
                <_>
                  29 17 3 2 -1.</_>
                <_>
                  30 18 1 2 3.</_></rects>
              <tilted>1</tilted></feature>
            <threshold>2.5942469947040081e-003</threshold>
            <left_val>-0.0409841313958168</left_val>
            <right_val>0.3543686866760254</right_val></_></_>
        <_>
          <_>
            <feature>
              <rects>
                <_>
                  3 17 2 3 -1.</_>
                <_>
                  2 18 2 1 3.</_></rects>
              <tilted>1</tilted></feature>
            <threshold>-9.2183402739465237e-004</threshold>
            <left_val>-0.4936371147632599</left_val>
            <right_val>0.1532662957906723</right_val></_></_>
        <_>
          <_>
            <feature>
              <rects>
                <_>
                  31 13 1 2 -1.</_>
                <_>
                  31 13 1 1 2.</_></rects>
              <tilted>1</tilted></feature>
            <threshold>1.7688849475234747e-003</threshold>
            <left_val>0.0313594117760658</left_val>
            <right_val>-0.3469038009643555</right_val></_></_>
        <_>
          <_>
            <feature>
              <rects>
                <_>
                  1 13 2 1 -1.</_>
                <_>
                  1 13 1 1 2.</_></rects>
              <tilted>1</tilted></feature>
            <threshold>-3.3612520201131701e-004</threshold>
            <left_val>-0.4796346127986908</left_val>
            <right_val>0.1376726031303406</right_val></_></_></trees>
      <stage_threshold>-1.0895309448242187</stage_threshold>
      <parent>8</parent>
      <next>-1</next></_>
    <_>
      <trees>
        <_>
          <_>
            <feature>
              <rects>
                <_>
                  0 5 18 14 -1.</_>
                <_>
                  9 5 9 14 2.</_></rects>
              <tilted>0</tilted></feature>
            <threshold>-0.2733103930950165</threshold>
            <left_val>-0.8401231765747070</left_val>
            <right_val>0.0994049906730652</right_val></_></_>
        <_>
          <_>
            <feature>
              <rects>
                <_>
                  27 19 4 3 -1.</_>
                <_>
                  27 20 4 1 3.</_></rects>
              <tilted>0</tilted></feature>
            <threshold>-3.3289669081568718e-003</threshold>
            <left_val>-0.8037747144699097</left_val>
            <right_val>0.0611696988344193</right_val></_></_>
        <_>
          <_>
            <feature>
              <rects>
                <_>
                  10 8 12 10 -1.</_>
                <_>
                  13 8 6 10 2.</_></rects>
              <tilted>0</tilted></feature>
            <threshold>-0.0155931701883674</threshold>
            <left_val>0.3217585086822510</left_val>
            <right_val>-0.2324253022670746</right_val></_></_>
        <_>
          <_>
            <feature>
              <rects>
                <_>
                  20 5 2 9 -1.</_>
                <_>
                  20 8 2 3 3.</_></rects>
              <tilted>0</tilted></feature>
            <threshold>0.0134627297520638</threshold>
            <left_val>-0.0947004631161690</left_val>
            <right_val>0.5790476799011231</right_val></_></_>
        <_>
          <_>
            <feature>
              <rects>
                <_>
                  7 5 9 1 -1.</_>
                <_>
                  10 8 3 1 3.</_></rects>
              <tilted>1</tilted></feature>
            <threshold>-6.4966939389705658e-003</threshold>
            <left_val>0.3352277874946594</left_val>
            <right_val>-0.2464524954557419</right_val></_></_>
        <_>
          <_>
            <feature>
              <rects>
                <_>
                  25 8 7 16 -1.</_>
                <_>
                  25 16 7 8 2.</_></rects>
              <tilted>0</tilted></feature>
            <threshold>-0.1747523993253708</threshold>
            <left_val>-1.</left_val>
            <right_val>0.0516915209591389</right_val></_></_>
        <_>
          <_>
            <feature>
              <rects>
                <_>
                  1 19 4 3 -1.</_>
                <_>
                  1 20 4 1 3.</_></rects>
              <tilted>0</tilted></feature>
            <threshold>-5.6331249652430415e-004</threshold>
            <left_val>-0.5045943260192871</left_val>
            <right_val>0.1262640058994293</right_val></_></_>
        <_>
          <_>
            <feature>
              <rects>
                <_>
                  16 15 1 8 -1.</_>
                <_>
                  16 15 1 4 2.</_></rects>
              <tilted>1</tilted></feature>
            <threshold>6.0189948417246342e-003</threshold>
            <left_val>-0.0526686385273933</left_val>
            <right_val>0.4095560908317566</right_val></_></_>
        <_>
          <_>
            <feature>
              <rects>
                <_>
                  13 19 2 1 -1.</_>
                <_>
                  14 19 1 1 2.</_></rects>
              <tilted>0</tilted></feature>
            <threshold>-1.1046689905924723e-005</threshold>
            <left_val>0.2371084988117218</left_val>
            <right_val>-0.3023844063282013</right_val></_></_>
        <_>
          <_>
            <feature>
              <rects>
                <_>
                  13 20 8 4 -1.</_>
                <_>
                  17 20 4 2 2.</_>
                <_>
                  13 22 4 2 2.</_></rects>
              <tilted>0</tilted></feature>
            <threshold>6.8571059964597225e-003</threshold>
            <left_val>-0.0508760809898376</left_val>
            <right_val>0.5714312195777893</right_val></_></_>
        <_>
          <_>
            <feature>
              <rects>
                <_>
                  0 0 2 3 -1.</_>
                <_>
                  0 1 2 1 3.</_></rects>
              <tilted>0</tilted></feature>
            <threshold>-8.5003121057525277e-004</threshold>
            <left_val>-0.6763244271278381</left_val>
            <right_val>0.1001913025975227</right_val></_></_>
        <_>
          <_>
            <feature>
              <rects>
                <_>
                  13 10 10 3 -1.</_>
                <_>
                  13 11 10 1 3.</_></rects>
              <tilted>0</tilted></feature>
            <threshold>-3.9615361019968987e-003</threshold>
            <left_val>0.3318920135498047</left_val>
            <right_val>-0.0892307087779045</right_val></_></_>
        <_>
          <_>
            <feature>
              <rects>
                <_>
                  2 11 4 8 -1.</_>
                <_>
                  2 11 2 4 2.</_>
                <_>
                  4 15 2 4 2.</_></rects>
              <tilted>0</tilted></feature>
            <threshold>-1.9555659964680672e-003</threshold>
            <left_val>0.3809747099876404</left_val>
            <right_val>-0.1521019935607910</right_val></_></_>
        <_>
          <_>
            <feature>
              <rects>
                <_>
                  27 12 2 6 -1.</_>
                <_>
                  28 12 1 3 2.</_>
                <_>
                  27 15 1 3 2.</_></rects>
              <tilted>0</tilted></feature>
            <threshold>-5.4070982150733471e-004</threshold>
            <left_val>0.3294061124324799</left_val>
            <right_val>-0.1515945047140122</right_val></_></_>
        <_>
          <_>
            <feature>
              <rects>
                <_>
                  3 12 2 6 -1.</_>
                <_>
                  3 12 1 3 2.</_>
                <_>
                  4 15 1 3 2.</_></rects>
              <tilted>0</tilted></feature>
            <threshold>1.9114579481538385e-004</threshold>
            <left_val>-0.2057556957006455</left_val>
            <right_val>0.3376410007476807</right_val></_></_>
        <_>
          <_>
            <feature>
              <rects>
                <_>
                  31 20 1 3 -1.</_>
                <_>
                  31 21 1 1 3.</_></rects>
              <tilted>0</tilted></feature>
            <threshold>-1.4799069322180003e-004</threshold>
            <left_val>-0.2299222052097321</left_val>
            <right_val>0.0893313735723495</right_val></_></_>
        <_>
          <_>
            <feature>
              <rects>
                <_>
                  0 20 1 3 -1.</_>
                <_>
                  0 21 1 1 3.</_></rects>
              <tilted>0</tilted></feature>
            <threshold>-4.6966588706709445e-004</threshold>
            <left_val>-0.7572749853134155</left_val>
            <right_val>0.0936240702867508</right_val></_></_>
        <_>
          <_>
            <feature>
              <rects>
                <_>
                  16 17 1 6 -1.</_>
                <_>
                  16 17 1 3 2.</_></rects>
              <tilted>1</tilted></feature>
            <threshold>2.0632329396903515e-003</threshold>
            <left_val>-0.1269697993993759</left_val>
            <right_val>0.3595528900623322</right_val></_></_>
        <_>
          <_>
            <feature>
              <rects>
                <_>
                  1 2 1 22 -1.</_>
                <_>
                  1 13 1 11 2.</_></rects>
              <tilted>0</tilted></feature>
            <threshold>-0.0270977504551411</threshold>
            <left_val>-0.9467728734016419</left_val>
            <right_val>0.0671574100852013</right_val></_></_>
        <_>
          <_>
            <feature>
              <rects>
                <_>
                  25 7 1 2 -1.</_>
                <_>
                  25 8 1 1 2.</_></rects>
              <tilted>0</tilted></feature>
            <threshold>-8.2588732766453177e-005</threshold>
            <left_val>0.3054423034191132</left_val>
            <right_val>-0.2712768912315369</right_val></_></_>
        <_>
          <_>
            <feature>
              <rects>
                <_>
                  5 7 2 2 -1.</_>
                <_>
                  5 8 2 1 2.</_></rects>
              <tilted>0</tilted></feature>
            <threshold>-1.1046689905924723e-005</threshold>
            <left_val>0.2635970115661621</left_val>
            <right_val>-0.2400868982076645</right_val></_></_>
        <_>
          <_>
            <feature>
              <rects>
                <_>
                  22 3 2 2 -1.</_>
                <_>
                  22 3 1 2 2.</_></rects>
              <tilted>0</tilted></feature>
            <threshold>-2.6685149350669235e-005</threshold>
            <left_val>0.1499375998973846</left_val>
            <right_val>-0.1368725001811981</right_val></_></_>
        <_>
          <_>
            <feature>
              <rects>
                <_>
                  9 0 6 15 -1.</_>
                <_>
                  11 5 2 5 9.</_></rects>
              <tilted>0</tilted></feature>
            <threshold>0.0881551802158356</threshold>
            <left_val>-0.0799839422106743</left_val>
            <right_val>0.7449309229850769</right_val></_></_>
        <_>
          <_>
            <feature>
              <rects>
                <_>
                  22 4 2 1 -1.</_>
                <_>
                  22 4 1 1 2.</_></rects>
              <tilted>1</tilted></feature>
            <threshold>6.1532837571576238e-004</threshold>
            <left_val>-0.1533789038658142</left_val>
            <right_val>0.3538762032985687</right_val></_></_>
        <_>
          <_>
            <feature>
              <rects>
                <_>
                  10 4 1 2 -1.</_>
                <_>
                  10 4 1 1 2.</_></rects>
              <tilted>1</tilted></feature>
            <threshold>1.1114760127384216e-005</threshold>
            <left_val>-0.2240646928548813</left_val>
            <right_val>0.3378461897373200</right_val></_></_>
        <_>
          <_>
            <feature>
              <rects>
                <_>
                  20 7 6 3 -1.</_>
                <_>
                  22 7 2 3 3.</_></rects>
              <tilted>0</tilted></feature>
            <threshold>5.4945969022810459e-003</threshold>
            <left_val>-0.0853983610868454</left_val>
            <right_val>0.5212815999984741</right_val></_></_>
        <_>
          <_>
            <feature>
              <rects>
                <_>
                  6 7 6 3 -1.</_>
                <_>
                  8 7 2 3 3.</_></rects>
              <tilted>0</tilted></feature>
            <threshold>2.2039220202714205e-003</threshold>
            <left_val>-0.1497398018836975</left_val>
            <right_val>0.4567868113517761</right_val></_></_></trees>
      <stage_threshold>-1.2328900098800659</stage_threshold>
      <parent>9</parent>
      <next>-1</next></_>
    <_>
      <trees>
        <_>
          <_>
            <feature>
              <rects>
                <_>
                  8 1 9 1 -1.</_>
                <_>
                  11 4 3 1 3.</_></rects>
              <tilted>1</tilted></feature>
            <threshold>0.0109991496428847</threshold>
            <left_val>-0.1408759057521820</left_val>
            <right_val>0.5385959744453430</right_val></_></_>
        <_>
          <_>
            <feature>
              <rects>
                <_>
                  13 8 6 10 -1.</_>
                <_>
                  15 8 2 10 3.</_></rects>
              <tilted>0</tilted></feature>
            <threshold>-5.3624762222170830e-003</threshold>
            <left_val>0.3265567123889923</left_val>
            <right_val>-0.1830413937568665</right_val></_></_>
        <_>
          <_>
            <feature>
              <rects>
                <_>
                  0 18 1 2 -1.</_>
                <_>
                  0 19 1 1 2.</_></rects>
              <tilted>0</tilted></feature>
            <threshold>-2.0468689399422146e-005</threshold>
            <left_val>0.3042638897895813</left_val>
            <right_val>-0.2571400105953217</right_val></_></_>
        <_>
          <_>
            <feature>
              <rects>
                <_>
                  31 11 1 2 -1.</_>
                <_>
