<?xml version="1.0"?>
<opencv_storage>
<myhaar type_id="opencv-haar-classifier">
  <size>
    32 24</size>
  <stages>
    <_>
      <trees>
        <_>
          <_>
            <feature>
              <rects>
                <_>
                  1 6 21 18 -1.</_>
                <_>
                  1 12 21 6 3.</_></rects>
              <tilted>0</tilted></feature>
            <threshold>-0.0751438811421394</threshold>
            <left_val>0.6679189205169678</left_val>
            <right_val>-0.2938064932823181</right_val></_></_>
        <_>
          <_>
            <feature>
              <rects>
                <_>
                  14 1 12 3 -1.</_>
                <_>
                  18 2 4 1 9.</_></rects>
              <tilted>0</tilted></feature>
            <threshold>-9.8294317722320557e-003</threshold>
            <left_val>0.5523592233657837</left_val>
            <right_val>-0.1154325976967812</right_val></_></_>
        <_>
          <_>
            <feature>
              <rects>
                <_>
                  11 0 6 1 -1.</_>
                <_>
                  13 2 2 1 3.</_></rects>
              <tilted>1</tilted></feature>
            <threshold>-2.1034599922131747e-004</threshold>
            <left_val>0.5155701041221619</left_val>
            <right_val>-0.3129141926765442</right_val></_></_>
        <_>
          <_>
            <feature>
              <rects>
                <_>
                  5 1 22 4 -1.</_>
                <_>
                  5 3 22 2 2.</_></rects>
              <tilted>0</tilted></feature>
            <threshold>0.0119015695527196</threshold>
            <left_val>-0.1880778968334198</left_val>
            <right_val>0.7913889884948731</right_val></_></_>
        <_>
          <_>
            <feature>
              <rects>
                <_>
                  0 1 6 14 -1.</_>
                <_>
                  3 1 3 14 2.</_></rects>
              <tilted>0</tilted></feature>
            <threshold>-0.0274786595255136</threshold>
            <left_val>0.8773639202117920</left_val>
            <right_val>-0.1809539943933487</right_val></_></_>
        <_>
          <_>
            <feature>
              <rects>
                <_>
                  17 0 4 17 -1.</_>
                <_>
                  17 0 2 17 2.</_></rects>
              <tilted>1</tilted></feature>
            <threshold>2.2429700475186110e-003</threshold>
            <left_val>0.2121033966541290</left_val>
            <right_val>-0.0830602273344994</right_val></_></_>
        <_>
          <_>
            <feature>
              <rects>
                <_>
                  4 0 24 21 -1.</_>
                <_>
                  16 0 12 21 2.</_></rects>
              <tilted>0</tilted></feature>
            <threshold>0.1620879024267197</threshold>
            <left_val>0.2227534055709839</left_val>
            <right_val>-0.5479406118392944</right_val></_></_>
        <_>
          <_>
            <feature>
              <rects>
                <_>
                  14 2 6 6 -1.</_>
                <_>
                  16 4 2 2 9.</_></rects>
              <tilted>0</tilted></feature>
            <threshold>-5.6374440900981426e-003</threshold>
            <left_val>0.4699158966541290</left_val>
            <right_val>-0.2084106951951981</right_val></_></_>
        <_>
          <_>
            <feature>
              <rects>
                <_>
                  12 1 3 6 -1.</_>
                <_>
                  13 3 1 2 9.</_></rects>
              <tilted>0</tilted></feature>
            <threshold>5.3941789083182812e-003</threshold>
            <left_val>-0.1304139941930771</left_val>
            <right_val>0.8308305144309998</right_val></_></_>
        <_>
          <_>
            <feature>
              <rects>
                <_>
                  28 6 4 18 -1.</_>
                <_>
                  30 6 2 9 2.</_>
                <_>
                  28 15 2 9 2.</_></rects>
              <tilted>0</tilted></feature>
            <threshold>-0.0102548403665423</threshold>
            <left_val>0.6146578192710877</left_val>
            <right_val>-0.1034499034285545</right_val></_></_>
        <_>
          <_>
            <feature>
              <rects>
                <_>
                  7 9 8 4 -1.</_>
                <_>
                  7 9 8 2 2.</_></rects>
              <tilted>1</tilted></feature>
            <threshold>-8.1836739555001259e-003</threshold>
            <left_val>0.7525246143341065</left_val>
            <right_val>-0.1433442980051041</right_val></_></_>
        <_>
          <_>
            <feature>
              <rects>
                <_>
                  19 16 6 2 -1.</_>
                <_>
                  21 18 2 2 3.</_></rects>
              <tilted>1</tilted></feature>
            <threshold>-3.3455761149525642e-003</threshold>
            <left_val>0.2896378934383392</left_val>
            <right_val>-0.1130492016673088</right_val></_></_>
        <_>
          <_>
            <feature>
              <rects>
                <_>
                  1 0 30 18 -1.</_>
                <_>
                  11 6 10 6 9.</_></rects>
              <tilted>0</tilted></feature>
            <threshold>0.3749105036258698</threshold>
            <left_val>-0.1559606045484543</left_val>
            <right_val>0.8051453232765198</right_val></_></_>
        <_>
          <_>
            <feature>
              <rects>
                <_>
                  10 0 12 18 -1.</_>
                <_>
                  10 6 12 6 3.</_></rects>
              <tilted>0</tilted></feature>
            <threshold>-0.0582131296396255</threshold>
            <left_val>0.5954322814941406</left_val>
            <right_val>-0.2156018018722534</right_val></_></_>
        <_>
          <_>
            <feature>
              <rects>
                <_>
                  0 6 4 18 -1.</_>
                <_>
                  0 6 2 9 2.</_>
                <_>
                  2 15 2 9 2.</_></rects>
              <tilted>0</tilted></feature>
            <threshold>-2.7472549118101597e-003</threshold>
            <left_val>0.5207251906394959</left_val>
            <right_val>-0.2743026912212372</right_val></_></_>
        <_>
          <_>
            <feature>
              <rects>
                <_>
                  17 21 2 3 -1.</_>
                <_>
                  17 22 2 1 3.</_></rects>
              <tilted>0</tilted></feature>
            <threshold>-3.3389899181202054e-004</threshold>
            <left_val>0.3864558041095734</left_val>
            <right_val>-0.1723773926496506</right_val></_></_></trees>
      <stage_threshold>-1.3204209804534912</stage_threshold>
      <parent>-1</parent>
      <next>-1</next></_>
    <_>
      <trees>
        <_>
          <_>
            <feature>
              <rects>
                <_>
                  4 22 24 2 -1.</_>
                <_>
                  4 23 24 1 2.</_></rects>
              <tilted>0</tilted></feature>
            <threshold>5.8706789277493954e-003</threshold>
            <left_val>-0.2966238856315613</left_val>
            <right_val>0.7867434024810791</right_val></_></_>
        <_>
          <_>
            <feature>
              <rects>
                <_>
                  14 13 18 9 -1.</_>
                <_>
                  20 16 6 3 9.</_></rects>
              <tilted>0</tilted></feature>
            <threshold>-0.0354652404785156</threshold>
            <left_val>0.5274453163146973</left_val>
            <right_val>-0.2036650031805039</right_val></_></_>
        <_>
          <_>
            <feature>
              <rects>
                <_>
                  0 5 12 18 -1.</_>
                <_>
                  3 5 6 18 2.</_></rects>
              <tilted>0</tilted></feature>
            <threshold>-0.0362354181706905</threshold>
            <left_val>0.8959618806838989</left_val>
            <right_val>-0.1473990976810455</right_val></_></_>
        <_>
          <_>
            <feature>
              <rects>
                <_>
                  0 7 32 11 -1.</_>
                <_>
                  8 7 16 11 2.</_></rects>
              <tilted>0</tilted></feature>
            <threshold>0.1071842014789581</threshold>
            <left_val>-0.2250083982944489</left_val>
            <right_val>0.6742652058601379</right_val></_></_>
        <_>
          <_>
            <feature>
              <rects>
                <_>
                  12 16 7 8 -1.</_>
                <_>
                  12 18 7 4 2.</_></rects>
              <tilted>0</tilted></feature>
            <threshold>0.0139656001701951</threshold>
            <left_val>-0.1558277010917664</left_val>
            <right_val>0.9119094014167786</right_val></_></_>
        <_>
          <_>
            <feature>
              <rects>
                <_>
                  5 0 27 9 -1.</_>
                <_>
                  14 3 9 3 9.</_></rects>
              <tilted>0</tilted></feature>
            <threshold>-0.0399917289614677</threshold>
            <left_val>0.4818040132522583</left_val>
            <right_val>-0.1254688054323196</right_val></_></_>
        <_>
          <_>
            <feature>
              <rects>
                <_>
                  3 1 6 3 -1.</_>
                <_>
                  5 2 2 1 9.</_></rects>
              <tilted>0</tilted></feature>
            <threshold>-3.3861470874398947e-003</threshold>
            <left_val>0.6268907785415649</left_val>
            <right_val>-0.1922975033521652</right_val></_></_>
        <_>
          <_>
            <feature>
              <rects>
                <_>
                  26 1 4 16 -1.</_>
                <_>
                  27 1 2 16 2.</_></rects>
              <tilted>0</tilted></feature>
            <threshold>-3.3000849653035402e-003</threshold>
            <left_val>0.3295815885066986</left_val>
            <right_val>-0.0978265106678009</right_val></_></_>
        <_>
          <_>
            <feature>
              <rects>
                <_>
                  2 1 4 16 -1.</_>
                <_>
                  3 1 2 16 2.</_></rects>
              <tilted>0</tilted></feature>
            <threshold>2.2486420348286629e-003</threshold>
            <left_val>-0.1988724023103714</left_val>
            <right_val>0.6343408823013306</right_val></_></_>
        <_>
          <_>
            <feature>
              <rects>
                <_>
                  5 16 24 8 -1.</_>
                <_>
                  5 20 24 4 2.</_></rects>
              <tilted>0</tilted></feature>
            <threshold>0.0837921872735024</threshold>
            <left_val>-0.0781312063336372</left_val>
            <right_val>0.9705728888511658</right_val></_></_>
        <_>
          <_>
            <feature>
              <rects>
                <_>
                  15 0 6 3 -1.</_>
                <_>
                  15 0 3 3 2.</_></rects>
              <tilted>1</tilted></feature>
            <threshold>-0.0158013906329870</threshold>
            <left_val>0.7102360725402832</left_val>
            <right_val>-0.1414228975772858</right_val></_></_>
        <_>
          <_>
            <feature>
              <rects>
                <_>
                  20 9 3 14 -1.</_>
                <_>
                  21 9 1 14 3.</_></rects>
              <tilted>0</tilted></feature>
            <threshold>-0.0159808509051800</threshold>
            <left_val>-0.8543828725814819</left_val>
            <right_val>0.0572999082505703</right_val></_></_>
        <_>
          <_>
            <feature>
              <rects>
                <_>
                  4 1 24 9 -1.</_>
                <_>
                  4 4 24 3 3.</_></rects>
              <tilted>0</tilted></feature>
            <threshold>-0.0458661094307899</threshold>
            <left_val>0.7949609160423279</left_val>
            <right_val>-0.1405251026153565</right_val></_></_>
        <_>
          <_>
            <feature>
              <rects>
                <_>
                  20 8 3 7 -1.</_>
                <_>
                  21 8 1 7 3.</_></rects>
              <tilted>0</tilted></feature>
            <threshold>9.0434547746554017e-004</threshold>
            <left_val>0.1040742993354797</left_val>
            <right_val>-0.2217513024806976</right_val></_></_>
        <_>
          <_>
            <feature>
              <rects>
                <_>
                  9 8 3 7 -1.</_>
                <_>
                  10 8 1 7 3.</_></rects>
              <tilted>0</tilted></feature>
            <threshold>3.2655140967108309e-004</threshold>
            <left_val>0.2457123994827271</left_val>
            <right_val>-0.4820975065231323</right_val></_></_></trees>
      <stage_threshold>-1.2891110181808472</stage_threshold>
      <parent>0</parent>
      <next>-1</next></_>
    <_>
      <trees>
        <_>
          <_>
            <feature>
              <rects>
                <_>
                  10 0 2 14 -1.</_>
                <_>
                  10 7 2 7 2.</_></rects>
              <tilted>0</tilted></feature>
            <threshold>-7.7226120047271252e-003</threshold>
            <left_val>0.7042856812477112</left_val>
            <right_val>-0.2964097857475281</right_val></_></_>
        <_>
          <_>
            <feature>
              <rects>
                <_>
                  26 11 6 13 -1.</_>
                <_>
                  26 11 3 13 2.</_></rects>
              <tilted>0</tilted></feature>
            <threshold>-0.0156651698052883</threshold>
            <left_val>0.5117260217666626</left_val>
            <right_val>-0.1231847032904625</right_val></_></_>
        <_>
          <_>
            <feature>
              <rects>
                <_>
                  1 12 6 5 -1.</_>
                <_>
                  3 12 2 5 3.</_></rects>
              <tilted>0</tilted></feature>
            <threshold>-4.6010711230337620e-003</threshold>
            <left_val>0.7833073735237122</left_val>
            <right_val>-0.1608462035655975</right_val></_></_>
        <_>
          <_>
            <feature>
              <rects>
                <_>
                  0 9 32 2 -1.</_>
                <_>
                  8 9 16 2 2.</_></rects>
              <tilted>0</tilted></feature>
            <threshold>0.0184309091418982</threshold>
            <left_val>-0.2519099116325378</left_val>
            <right_val>0.5517585277557373</right_val></_></_>
        <_>
          <_>
            <feature>
              <rects>
                <_>
                  1 15 8 9 -1.</_>
                <_>
                  5 15 4 9 2.</_></rects>
              <tilted>0</tilted></feature>
            <threshold>-0.0102966399863362</threshold>
            <left_val>0.7296360731124878</left_val>
            <right_val>-0.1922692954540253</right_val></_></_>
        <_>
          <_>
            <feature>
              <rects>
                <_>
                  26 14 6 5 -1.</_>
                <_>
                  26 14 3 5 2.</_></rects>
              <tilted>0</tilted></feature>
            <threshold>6.0936622321605682e-003</threshold>
            <left_val>-0.2017035931348801</left_val>
            <right_val>0.6424046754837036</right_val></_></_>
        <_>
          <_>
            <feature>
              <rects>
                <_>
                  8 10 1 8 -1.</_>
                <_>
                  6 12 1 4 2.</_></rects>
              <tilted>1</tilted></feature>
            <threshold>4.1543929837644100e-003</threshold>
            <left_val>-0.1507029980421066</left_val>
            <right_val>0.7259879112243652</right_val></_></_>
        <_>
          <_>
            <feature>
              <rects>
                <_>
                  15 18 9 6 -1.</_>
                <_>
                  18 20 3 2 9.</_></rects>
              <tilted>0</tilted></feature>
            <threshold>-0.0153979603201151</threshold>
            <left_val>0.5384178757667542</left_val>
            <right_val>-0.1345916986465454</right_val></_></_>
        <_>
          <_>
            <feature>
              <rects>
                <_>
                  6 14 9 6 -1.</_>
                <_>
                  9 16 3 2 9.</_></rects>
              <tilted>0</tilted></feature>
            <threshold>-1.7026179702952504e-003</threshold>
            <left_val>0.4844219982624054</left_val>
            <right_val>-0.2332864999771118</right_val></_></_>
        <_>
          <_>
            <feature>
              <rects>
                <_>
                  6 6 22 18 -1.</_>
                <_>
                  6 12 22 6 3.</_></rects>
              <tilted>0</tilted></feature>
            <threshold>0.2079762071371079</threshold>
            <left_val>-0.1183757036924362</left_val>
            <right_val>0.9354553222656250</right_val></_></_>
        <_>
          <_>
            <feature>
              <rects>
                <_>
                  16 8 3 9 -1.</_>
                <_>
                  13 11 3 3 3.</_></rects>
              <tilted>1</tilted></feature>
            <threshold>-7.3146037757396698e-003</threshold>
            <left_val>0.6012802124023438</left_val>
            <right_val>-0.1881828010082245</right_val></_></_>
        <_>
          <_>
            <feature>
              <rects>
                <_>
                  0 16 32 2 -1.</_>
                <_>
                  16 16 16 1 2.</_>
                <_>
                  0 17 16 1 2.</_></rects>
              <tilted>0</tilted></feature>
            <threshold>-0.0141175203025341</threshold>
            <left_val>-0.8092867732048035</left_val>
            <right_val>0.1637568026781082</right_val></_></_>
        <_>
          <_>
            <feature>
              <rects>
                <_>
                  1 14 23 9 -1.</_>
                <_>
                  1 17 23 3 3.</_></rects>
              <tilted>0</tilted></feature>
            <threshold>-0.0206194408237934</threshold>
            <left_val>0.4576346874237061</left_val>
            <right_val>-0.2660511136054993</right_val></_></_></trees>
      <stage_threshold>-1.3096489906311035</stage_threshold>
      <parent>1</parent>
      <next>-1</next></_>
    <_>
      <trees>
        <_>
          <_>
            <feature>
              <rects>
                <_>
                  5 20 22 4 -1.</_>
                <_>
                  5 22 22 2 2.</_></rects>
              <tilted>0</tilted></feature>
            <threshold>0.0105906398966908</threshold>
            <left_val>-0.3375653028488159</left_val>
            <right_val>0.7607504725456238</right_val></_></_>
        <_>
          <_>
            <feature>
              <rects>
                <_>
                  29 3 1 20 -1.</_>
                <_>
                  29 3 1 10 2.</_></rects>
              <tilted>1</tilted></feature>
            <threshold>-0.0263862591236830</threshold>
            <left_val>0.5699102878570557</left_val>
            <right_val>-0.0127909202128649</right_val></_></_>
        <_>
          <_>
            <feature>
              <rects>
                <_>
                  3 3 20 1 -1.</_>
                <_>
                  3 3 10 1 2.</_></rects>
              <tilted>1</tilted></feature>
            <threshold>0.0394289605319500</threshold>
            <left_val>0.2337117940187454</left_val>
            <right_val>-0.7024921774864197</right_val></_></_>
        <_>
          <_>
            <feature>
              <rects>
                <_>
                  24 2 8 17 -1.</_>
                <_>
                  26 2 4 17 2.</_></rects>
              <tilted>0</tilted></feature>
            <threshold>0.0116858100518584</threshold>
            <left_val>-0.1724110990762711</left_val>
            <right_val>0.4953207969665527</right_val></_></_>
        <_>
          <_>
            <feature>
              <rects>
                <_>
                  0 2 8 17 -1.</_>
                <_>
                  2 2 4 17 2.</_></rects>
              <tilted>0</tilted></feature>
            <threshold>0.0139506403356791</threshold>
            <left_val>-0.1850713044404984</left_val>
            <right_val>0.8367468714714050</right_val></_></_>
        <_>
          <_>
            <feature>
              <rects>
                <_>
                  23 4 9 8 -1.</_>
                <_>
                  26 4 3 8 3.</_></rects>
              <tilted>0</tilted></feature>
            <threshold>-0.0186789501458406</threshold>
            <left_val>0.7633396983146668</left_val>
            <right_val>-0.1895841062068939</right_val></_></_>
        <_>
          <_>
            <feature>
              <rects>
                <_>
                  0 2 8 6 -1.</_>
                <_>
                  2 2 4 6 2.</_></rects>
              <tilted>0</tilted></feature>
            <threshold>-6.8895830772817135e-003</threshold>
            <left_val>0.7196555733680725</left_val>
            <right_val>-0.1924227029085159</right_val></_></_>
        <_>
          <_>
            <feature>
              <rects>
                <_>
                  18 22 2 2 -1.</_>
                <_>
                  19 22 1 1 2.</_>
                <_>
                  18 23 1 1 2.</_></rects>
              <tilted>0</tilted></feature>
            <threshold>9.0886578618665226e-006</threshold>
            <left_val>-0.1304596066474915</left_val>
            <right_val>0.3748970925807953</right_val></_></_>
        <_>
          <_>
            <feature>
              <rects>
                <_>
                  12 0 2 2 -1.</_>
                <_>
                  13 0 1 2 2.</_></rects>
              <tilted>0</tilted></feature>
            <threshold>-8.5916508396621794e-006</threshold>
            <left_val>0.5353400707244873</left_val>
            <right_val>-0.2750037908554077</right_val></_></_>
        <_>
          <_>
            <feature>
              <rects>
                <_>
                  27 2 4 20 -1.</_>
                <_>
                  29 2 2 10 2.</_>
                <_>
                  27 12 2 10 2.</_></rects>
              <tilted>0</tilted></feature>
            <threshold>-0.0147361699491739</threshold>
            <left_val>0.7480493783950806</left_val>
            <right_val>-0.0825510174036026</right_val></_></_>
        <_>
          <_>
            <feature>
              <rects>
                <_>
                  1 2 4 16 -1.</_>
                <_>
                  1 2 2 8 2.</_>
                <_>
                  3 10 2 8 2.</_></rects>
              <tilted>0</tilted></feature>
            <threshold>-4.8188571818172932e-003</threshold>
            <left_val>0.7035977244377136</left_val>
            <right_val>-0.1957831978797913</right_val></_></_>
        <_>
          <_>
            <feature>
              <rects>
                <_>
                  26 20 2 1 -1.</_>
                <_>
                  26 20 1 1 2.</_></rects>
              <tilted>0</tilted></feature>
            <threshold>8.7457838162663393e-006</threshold>
            <left_val>-0.1736083030700684</left_val>
            <right_val>0.4101074039936066</right_val></_></_>
        <_>
          <_>
            <feature>
              <rects>
                <_>
                  9 0 4 9 -1.</_>
                <_>
                  10 1 2 9 2.</_></rects>
              <tilted>1</tilted></feature>
            <threshold>-3.1328368932008743e-003</threshold>
            <left_val>0.5797584056854248</left_val>
            <right_val>-0.2435266971588135</right_val></_></_>
        <_>
          <_>
            <feature>
              <rects>
                <_>
                  19 5 12 9 -1.</_>
                <_>
                  22 5 6 9 2.</_></rects>
              <tilted>0</tilted></feature>
            <threshold>-0.0100463200360537</threshold>
            <left_val>0.4323487877845764</left_val>
            <right_val>-0.1347718983888626</right_val></_></_>
        <_>
          <_>
            <feature>
              <rects>
                <_>
                  1 5 12 9 -1.</_>
                <_>
                  4 5 6 9 2.</_></rects>
              <tilted>0</tilted></feature>
            <threshold>0.0242626294493675</threshold>
            <left_val>-0.1785022020339966</left_val>
            <right_val>0.8436722159385681</right_val></_></_></trees>
      <stage_threshold>-1.3542389869689941</stage_threshold>
      <parent>2</parent>
      <next>-1</next></_>
    <_>
      <trees>
        <_>
          <_>
            <feature>
              <rects>
                <_>
                  8 4 15 18 -1.</_>
                <_>
                  8 13 15 9 2.</_></rects>
              <tilted>0</tilted></feature>
            <threshold>-0.1444378942251205</threshold>
            <left_val>0.8521025180816650</left_val>
            <right_val>-0.2134755998849869</right_val></_></_>
        <_>
          <_>
            <feature>
              <rects>
                <_>
                  8 0 16 12 -1.</_>
                <_>
                  8 6 16 6 2.</_></rects>
              <tilted>0</tilted></feature>
            <threshold>-0.0746290013194084</threshold>
            <left_val>0.6751568913459778</left_val>
            <right_val>-0.1828466057777405</right_val></_></_>
        <_>
          <_>
            <feature>
              <rects>
                <_>
                  1 16 22 8 -1.</_>
                <_>
                  1 20 22 4 2.</_></rects>
              <tilted>0</tilted></feature>
            <threshold>-0.0931494608521461</threshold>
            <left_val>0.9042863249778748</left_val>
            <right_val>-0.1218231022357941</right_val></_></_>
        <_>
          <_>
            <feature>
              <rects>
                <_>
                  15 11 3 12 -1.</_>
                <_>
                  15 15 3 4 3.</_></rects>
              <tilted>0</tilted></feature>
            <threshold>-9.4125922769308090e-003</threshold>
            <left_val>0.4390841126441956</left_val>
            <right_val>-0.1582026034593582</right_val></_></_>
        <_>
          <_>
            <feature>
              <rects>
                <_>
                  2 4 21 3 -1.</_>
                <_>
                  2 5 21 1 3.</_></rects>
              <tilted>0</tilted></feature>
            <threshold>0.0196435395628214</threshold>
            <left_val>0.1591304987668991</left_val>
            <right_val>-0.8128786087036133</right_val></_></_>
        <_>
          <_>
            <feature>
              <rects>
                <_>
                  5 20 26 4 -1.</_>
                <_>
                  18 20 13 2 2.</_>
                <_>
                  5 22 13 2 2.</_></rects>
              <tilted>0</tilted></feature>
            <threshold>-0.0169805604964495</threshold>
            <left_val>0.4612576067447662</left_val>
            <right_val>-0.1201329007744789</right_val></_></_>
        <_>
          <_>
            <feature>
              <rects>
                <_>
                  0 1 18 20 -1.</_>
                <_>
                  6 1 6 20 3.</_></rects>
              <tilted>0</tilted></feature>
            <threshold>-0.0494007803499699</threshold>
            <left_val>0.5622249245643616</left_val>
            <right_val>-0.2066165953874588</right_val></_></_>
        <_>
          <_>
            <feature>
              <rects>
                <_>
                  25 3 6 19 -1.</_>
                <_>
                  25 3 3 19 2.</_></rects>
              <tilted>0</tilted></feature>
            <threshold>0.0265054795891047</threshold>
            <left_val>-0.1457865983247757</left_val>
            <right_val>0.7553107142448425</right_val></_></_>
        <_>
          <_>
            <feature>
              <rects>
                <_>
                  1 7 12 17 -1.</_>
                <_>
                  4 7 6 17 2.</_></rects>
              <tilted>0</tilted></feature>
            <threshold>0.0156067004427314</threshold>
            <left_val>-0.1743852049112320</left_val>
            <right_val>0.6671491265296936</right_val></_></_>
        <_>
          <_>
            <feature>
              <rects>
                <_>
                  13 19 17 4 -1.</_>
                <_>
                  13 20 17 2 2.</_></rects>
              <tilted>0</tilted></feature>
            <threshold>-3.7118298932909966e-003</threshold>
            <left_val>0.3754377067089081</left_val>
            <right_val>-0.1370023041963577</right_val></_></_>
        <_>
          <_>
            <feature>
              <rects>
                <_>
                  0 20 26 4 -1.</_>
                <_>
                  0 20 13 2 2.</_>
                <_>
                  13 22 13 2 2.</_></rects>
              <tilted>0</tilted></feature>
            <threshold>-4.9583590589463711e-003</threshold>
            <left_val>0.5355166196823120</left_val>
            <right_val>-0.2010615020990372</right_val></_></_>
        <_>
          <_>
            <feature>
              <rects>
                <_>
                  15 17 2 2 -1.</_>
                <_>
                  15 18 2 1 2.</_></rects>
              <tilted>0</tilted></feature>
            <threshold>-3.2031108275987208e-005</threshold>
            <left_val>0.4364067912101746</left_val>
            <right_val>-0.2898947894573212</right_val></_></_>
        <_>
          <_>
            <feature>
              <rects>
                <_>
                  0 11 2 11 -1.</_>
                <_>
                  1 11 1 11 2.</_></rects>
              <tilted>0</tilted></feature>
            <threshold>-1.2858189875259995e-003</threshold>
            <left_val>0.6266422271728516</left_val>
            <right_val>-0.1730552017688751</right_val></_></_>
        <_>
          <_>
            <feature>
              <rects>
                <_>
                  27 1 2 5 -1.</_>
                <_>
                  27 1 1 5 2.</_></rects>
              <tilted>0</tilted></feature>
            <threshold>-1.7023419495671988e-003</threshold>
            <left_val>0.3731464147567749</left_val>
            <right_val>-0.0526698902249336</right_val></_></_></trees>
      <stage_threshold>-1.1598190069198608</stage_threshold>
      <parent>3</parent>
      <next>-1</next></_>
    <_>
      <trees>
        <_>
          <_>
            <feature>
              <rects>
                <_>
                  10 13 1 2 -1.</_>
                <_>
                  10 14 1 1 2.</_></rects>
              <tilted>0</tilted></feature>
            <threshold>-1.0069219570141286e-005</threshold>
            <left_val>0.5877013206481934</left_val>
            <right_val>-0.3560768961906433</right_val></_></_>
        <_>
          <_>
            <feature>
              <rects>
                <_>
                  15 20 9 4 -1.</_>
                <_>
                  15 22 9 2 2.</_></rects>
              <tilted>0</tilted></feature>
            <threshold>3.0065700411796570e-003</threshold>
            <left_val>-0.2063910067081451</left_val>
            <right_val>0.3613862097263336</right_val></_></_>
        <_>
          <_>
            <feature>
              <rects>
                <_>
                  0 1 9 13 -1.</_>
                <_>
                  3 1 3 13 3.</_></rects>
              <tilted>0</tilted></feature>
            <threshold>-0.0243604108691216</threshold>
            <left_val>0.7815260887145996</left_val>
            <right_val>-0.1812085956335068</right_val></_></_>
        <_>
          <_>
            <feature>
              <rects>
                <_>
                  30 15 2 8 -1.</_>
                <_>
                  31 15 1 4 2.</_>
                <_>
                  30 19 1 4 2.</_></rects>
              <tilted>0</tilted></feature>
            <threshold>-1.3654050417244434e-003</threshold>
            <left_val>0.5094125866889954</left_val>
            <right_val>-0.0976662710309029</right_val></_></_>
        <_>
          <_>
            <feature>
              <rects>
                <_>
                  4 3 19 14 -1.</_>
                <_>
                  4 10 19 7 2.</_></rects>
              <tilted>0</tilted></feature>
            <threshold>0.0287211295217276</threshold>
            <left_val>-0.2331825941801071</left_val>
            <right_val>0.6866180896759033</right_val></_></_>
        <_>
          <_>
            <feature>
              <rects>
                <_>
                  15 19 2 5 -1.</_>
                <_>
                  15 19 1 5 2.</_></rects>
              <tilted>0</tilted></feature>
            <threshold>-9.5184172096196562e-005</threshold>
            <left_val>0.5914409160614014</left_val>
            <right_val>-0.2266834974288940</right_val></_></_>
        <_>
          <_>
            <feature>
              <rects>
                <_>
                  0 15 2 8 -1.</_>
                <_>
                  0 15 1 4 2.</_>
                <_>
                  1 19 1 4 2.</_></rects>
              <tilted>0</tilted></feature>
            <threshold>-2.8571110306074843e-005</threshold>
            <left_val>0.5344116091728210</left_val>
            <right_val>-0.2665266096591950</right_val></_></_>
        <_>
          <_>
            <feature>
              <rects>
                <_>
                  15 21 2 3 -1.</_>
                <_>
                  15 21 1 3 2.</_></rects>
              <tilted>0</tilted></feature>
            <threshold>9.6570765890646726e-006</threshold>
            <left_val>-0.3021183013916016</left_val>
            <right_val>0.4899466931819916</right_val></_></_>
        <_>
          <_>
            <feature>
              <rects>
                <_>
                  6 22 2 2 -1.</_>
                <_>
                  6 22 1 1 2.</_>
                <_>
                  7 23 1 1 2.</_></rects>
              <tilted>0</tilted></feature>
            <threshold>9.4452334451489151e-006</threshold>
            <left_val>-0.2640722990036011</left_val>
            <right_val>0.5637133717536926</right_val></_></_>
        <_>
          <_>
            <feature>
              <rects>
                <_>
                  19 19 4 5 -1.</_>
                <_>
                  20 19 2 5 2.</_></rects>
              <tilted>0</tilted></feature>
            <threshold>-7.7814650721848011e-003</threshold>
            <left_val>-0.8954554200172424</left_val>
            <right_val>0.0355899594724178</right_val></_></_>
        <_>
          <_>
            <feature>
              <rects>
                <_>
                  6 22 2 2 -1.</_>
                <_>
                  6 22 1 1 2.</_>
                <_>
                  7 23 1 1 2.</_></rects>
              <tilted>0</tilted></feature>
            <threshold>-8.7994385467027314e-006</threshold>
            <left_val>0.4541505873203278</left_val>
            <right_val>-0.3070931136608124</right_val></_></_>
        <_>
          <_>
            <feature>
              <rects>
                <_>
                  28 4 2 18 -1.</_>
                <_>
                  29 4 1 9 2.</_>
                <_>
                  28 13 1 9 2.</_></rects>
              <tilted>0</tilted></feature>
            <threshold>1.3208759482949972e-003</threshold>
            <left_val>-0.1295274049043655</left_val>
            <right_val>0.3620514869689941</right_val></_></_>
        <_>
          <_>
            <feature>
              <rects>
                <_>
                  1 11 4 10 -1.</_>
                <_>
                  1 11 2 5 2.</_>
                <_>
                  3 16 2 5 2.</_></rects>
              <tilted>0</tilted></feature>
            <threshold>-6.3309199176728725e-003</threshold>
            <left_val>0.8454437255859375</left_val>
            <right_val>-0.1495539993047714</right_val></_></_>
        <_>
          <_>
            <feature>
              <rects>
                <_>
                  21 21 2 3 -1.</_>
                <_>
                  21 21 1 3 2.</_></rects>
              <tilted>0</tilted></feature>
            <threshold>-8.9331206254428253e-006</threshold>
            <left_val>0.2455206960439682</left_val>
            <right_val>-0.1102297976613045</right_val></_></_>
        <_>
          <_>
            <feature>
              <rects>
                <_>
                  9 21 2 3 -1.</_>
                <_>
                  10 21 1 3 2.</_></rects>
              <tilted>0</tilted></feature>
            <threshold>-9.6570765890646726e-006</threshold>
            <left_val>0.5330160856246948</left_val>
            <right_val>-0.2456243932247162</right_val></_></_>
        <_>
          <_>
            <feature>
              <rects>
                <_>
                  12 15 12 1 -1.</_>
                <_>
                  15 15 6 1 2.</_></rects>
              <tilted>0</tilted></feature>
            <threshold>1.2515049893409014e-003</threshold>
            <left_val>0.1598287969827652</left_val>
            <right_val>-0.4515241086483002</right_val></_></_></trees>
      <stage_threshold>-1.4035450220108032</stage_threshold>
      <parent>4</parent>
      <next>-1</next></_>
    <_>
      <trees>
        <_>
          <_>
            <feature>
              <rects>
                <_>
                  4 9 23 15 -1.</_>
                <_>
                  4 14 23 5 3.</_></rects>
              <tilted>0</tilted></feature>
            <threshold>-0.1081667020916939</threshold>
            <left_val>0.7139636874198914</left_val>
            <right_val>-0.2520321905612946</right_val></_></_>
        <_>
          <_>
            <feature>
              <rects>
                <_>
                  10 0 18 6 -1.</_>
                <_>
                  10 2 18 2 3.</_></rects>
              <tilted>0</tilted></feature>
            <threshold>-0.0322306305170059</threshold>
            <left_val>0.7048631906509399</left_val>
            <right_val>-0.1095713973045349</right_val></_></_>
        <_>
          <_>
            <feature>
              <rects>
                <_>
                  0 7 22 12 -1.</_>
                <_>
                  0 7 11 6 2.</_>
                <_>
                  11 13 11 6 2.</_></rects>
              <tilted>0</tilted></feature>
            <threshold>-0.0315373502671719</threshold>
            <left_val>0.6060174703598023</left_val>
            <right_val>-0.1880133002996445</right_val></_></_>
        <_>
          <_>
            <feature>
              <rects>
                <_>
                  10 6 20 18 -1.</_>
                <_>
                  10 12 20 6 3.</_></rects>
              <tilted>0</tilted></feature>
            <threshold>0.2072795927524567</threshold>
            <left_val>-0.0606807209551334</left_val>
            <right_val>0.6761087179183960</right_val></_></_>
        <_>
          <_>
            <feature>
              <rects>
                <_>
                  5 0 22 4 -1.</_>
                <_>
                  5 1 22 2 2.</_></rects>
              <tilted>0</tilted></feature>
            <threshold>7.8007131814956665e-003</threshold>
            <left_val>-0.1643286943435669</left_val>
            <right_val>0.6519569754600525</right_val></_></_>
        <_>
          <_>
            <feature>
              <rects>
                <_>
                  12 0 15 12 -1.</_>
                <_>
                  12 3 15 6 2.</_></rects>
              <tilted>0</tilted></feature>
            <threshold>0.0650618001818657</threshold>
            <left_val>-0.0735731720924377</left_val>
            <right_val>0.5471807718276978</right_val></_></_>
        <_>
          <_>
            <feature>
              <rects>
                <_>
                  1 12 2 12 -1.</_>
                <_>
                  1 12 1 6 2.</_>
                <_>
                  2 18 1 6 2.</_></rects>
              <tilted>0</tilted></feature>
            <threshold>-1.1492250487208366e-003</threshold>
            <left_val>0.5614454150199890</left_val>
            <right_val>-0.1961552947759628</right_val></_></_>
        <_>
          <_>
            <feature>
              <rects>
                <_>
                  20 2 12 9 -1.</_>
                <_>
                  24 2 4 9 3.</_></rects>
              <tilted>0</tilted></feature>
            <threshold>-0.0350904092192650</threshold>
            <left_val>0.6280549168586731</left_val>
            <right_val>-0.1246417015790939</right_val></_></_>
        <_>
          <_>
            <feature>
              <rects>
                <_>
                  10 0 3 24 -1.</_>
                <_>
                  11 0 1 24 3.</_></rects>
              <tilted>0</tilted></feature>
            <threshold>-8.0669745802879333e-003</threshold>
            <left_val>-0.7718021869659424</left_val>
            <right_val>0.1518424004316330</right_val></_></_>
        <_>
          <_>
            <feature>
              <rects>
                <_>
                  20 17 2 1 -1.</_>
                <_>
                  20 17 1 1 2.</_></rects>
              <tilted>0</tilted></feature>
            <threshold>2.7970880182692781e-005</threshold>
            <left_val>-0.1465484052896500</left_val>
            <right_val>0.1809726953506470</right_val></_></_>
        <_>
          <_>
            <feature>
              <rects>
                <_>
                  0 8 12 6 -1.</_>
                <_>
                  4 10 4 2 9.</_></rects>
              <tilted>0</tilted></feature>
            <threshold>-0.0181349106132984</threshold>
            <left_val>0.5293201804161072</left_val>
            <right_val>-0.1864220052957535</right_val></_></_>
        <_>
          <_>
            <feature>
              <rects>
                <_>
                  23 3 4 4 -1.</_>
                <_>
                  23 5 4 2 2.</_></rects>
              <tilted>0</tilted></feature>
            <threshold>1.3927229447290301e-003</threshold>
            <left_val>-0.1127061992883682</left_val>
            <right_val>0.3333888053894043</right_val></_></_>
        <_>
          <_>
            <feature>
              <rects>
                <_>
                  0 1 30 6 -1.</_>
                <_>
                  0 1 15 3 2.</_>
                <_>
                  15 4 15 3 2.</_></rects>
              <tilted>0</tilted></feature>
            <threshold>-0.0195645093917847</threshold>
            <left_val>0.6899889707565308</left_val>
            <right_val>-0.1836383044719696</right_val></_></_>
        <_>
          <_>
            <feature>
              <rects>
                <_>
                  28 3 4 10 -1.</_>
                <_>
                  29 3 2 10 2.</_></rects>
              <tilted>0</tilted></feature>
            <threshold>7.1408320218324661e-003</threshold>
            <left_val>-0.0289936996996403</left_val>
            <right_val>0.4841093122959137</right_val></_></_>
        <_>
          <_>
            <feature>
              <rects>
                <_>
                  0 3 4 10 -1.</_>
                <_>
                  1 3 2 10 2.</_></rects>
              <tilted>0</tilted></feature>
            <threshold>-2.0770831033587456e-003</threshold>
            <left_val>0.6235082149505615</left_val>
            <right_val>-0.2133283019065857</right_val></_></_>
        <_>
          <_>
            <feature>
              <rects>
                <_>
                  21 20 5 4 -1.</_>
                <_>
                  21 22 5 2 2.</_></rects>
              <tilted>0</tilted></feature>
            <threshold>-1.7710189567878842e-003</threshold>
            <left_val>0.4213294982910156</left_val>
            <right_val>-0.1623571962118149</right_val></_></_>
        <_>
          <_>
            <feature>
              <rects>
                <_>
                  14 0 18 4 -1.</_>
                <_>
                  14 0 18 2 2.</_></rects>
              <tilted>1</tilted></feature>
            <threshold>0.0333942994475365</threshold>
            <left_val>-0.1181252002716065</left_val>
            <right_val>0.8030726909637451</right_val></_></_>
        <_>
          <_>
            <feature>
              <rects>
                <_>
                  28 19 3 1 -1.</_>
                <_>
                  29 19 1 1 3.</_></rects>
              <tilted>0</tilted></feature>
            <threshold>7.1776012191548944e-004</threshold>
            <left_val>-0.0558537505567074</left_val>
            <right_val>0.5556607246398926</right_val></_></_>
        <_>
          <_>
            <feature>
              <rects>
                <_>
                  1 19 3 1 -1.</_>
                <_>
                  2 19 1 1 3.</_></rects>
              <tilted>0</tilted></feature>
            <threshold>1.0262139767291956e-005</threshold>
            <left_val>-0.2705731987953186</left_val>
            <right_val>0.4099000096321106</right_val></_></_>
        <_>
          <_>
            <feature>
              <rects>
                <_>
                  19 3 9 4 -1.</_>
                <_>
                  19 5 9 2 2.</_></rects>
              <tilted>0</tilted></feature>
            <threshold>4.3526009540073574e-004</threshold>
            <left_val>-0.1332987993955612</left_val>
            <right_val>0.2683531045913696</right_val></_></_>
        <_>
          <_>
            <feature>
              <rects>
                <_>
                  12 6 2 6 -1.</_>
                <_>
                  13 6 1 6 2.</_></rects>
              <tilted>0</tilted></feature>
            <threshold>-8.8886517914943397e-006</threshold>
            <left_val>0.4374319911003113</left_val>
            <right_val>-0.2722114920616150</right_val></_></_></trees>
      <stage_threshold>-1.1835730075836182</stage_threshold>
      <parent>5</parent>
      <next>-1</next></_>
    <_>
      <trees>
        <_>
          <_>
            <feature>
              <rects>
                <_>
                  0 17 32 3 -1.</_>
                <_>
                  8 17 16 3 2.</_></rects>
              <tilted>0</tilted></feature>
            <threshold>-0.0538064986467361</threshold>
            <left_val>0.9124274253845215</left_val>
            <right_val>-0.1891614049673080</right_val></_></_>
        <_>
          <_>
            <feature>
              <rects>
                <_>
                  23 5 1 2 -1.</_>
                <_>
                  23 6 1 1 2.</_></rects>
              <tilted>0</tilted></feature>
            <threshold>-8.0773479567142203e-006</threshold>
            <left_val>0.2943401038646698</left_val>
            <right_val>-0.1139433011412621</right_val></_></_>
        <_>
          <_>
            <feature>
              <rects>
                <_>
                  0 2 8 16 -1.</_>
                <_>
                  4 2 4 16 2.</_></rects>
              <tilted>0</tilted></feature>
            <threshold>0.0269743204116821</threshold>
            <left_val>-0.2717534899711609</left_val>
            <right_val>0.7080600261688232</right_val></_></_>
        <_>
          <_>
            <feature>
              <rects>
                <_>
                  23 5 1 2 -1.</_>
                <_>
                  23 6 1 1 2.</_></rects>
              <tilted>0</tilted></feature>
            <threshold>3.5251319786766544e-005</threshold>
            <left_val>-0.0402474291622639</left_val>
            <right_val>0.2773607969284058</right_val></_></_>
        <_>
          <_>
            <feature>
              <rects>
                <_>
                  8 5 1 2 -1.</_>
                <_>
                  8 6 1 1 2.</_></rects>
              <tilted>0</tilted></feature>
            <threshold>-8.0773479567142203e-006</threshold>
            <left_val>0.4962561130523682</left_val>
            <right_val>-0.2909465134143829</right_val></_></_>
        <_>
          <_>
            <feature>
              <rects>
                <_>
                  26 5 2 6 -1.</_>
                <_>
                  26 7 2 2 3.</_></rects>
              <tilted>0</tilted></feature>
            <threshold>-0.0118226101621985</threshold>
            <left_val>-0.5990102291107178</left_val>
            <right_val>-2.6355010922998190e-003</right_val></_></_>
        <_>
          <_>
            <feature>
              <rects>
                <_>
                  0 10 8 7 -1.</_>
                <_>
                  4 10 4 7 2.</_></rects>
              <tilted>0</tilted></feature>
            <threshold>-6.6886572167277336e-003</threshold>
            <left_val>0.4636408984661102</left_val>
            <right_val>-0.2343004047870636</right_val></_></_>
        <_>
          <_>
            <feature>
              <rects>
                <_>
                  8 0 17 16 -1.</_>
                <_>
                  8 4 17 8 2.</_></rects>
              <tilted>0</tilted></feature>
            <threshold>0.0842155292630196</threshold>
            <left_val>-0.1510643064975739</left_val>
            <right_val>0.7413427233695984</right_val></_></_>
        <_>
          <_>
            <feature>
              <rects>
                <_>
                  0 16 8 2 -1.</_>
                <_>
                  0 17 8 1 2.</_></rects>
              <tilted>0</tilted></feature>
            <threshold>-1.3245840091258287e-004</threshold>
            <left_val>0.4097006916999817</left_val>
            <right_val>-0.2565735876560211</right_val></_></_>
        <_>
          <_>
            <feature>
              <rects>
                <_>
                  17 0 5 12 -1.</_>
                <_>
                  17 3 5 6 2.</_></rects>
              <tilted>0</tilted></feature>
            <threshold>-0.0224125608801842</threshold>
            <left_val>0.4852055907249451</left_val>
            <right_val>-0.1017293035984039</right_val></_></_>
        <_>
          <_>
            <feature>
              <rects>
                <_>
                  2 13 8 10 -1.</_>
                <_>
                  2 13 4 5 2.</_>
                <_>
                  6 18 4 5 2.</_></rects>
              <tilted>0</tilted></feature>
            <threshold>-0.0105902198702097</threshold>
            <left_val>0.6503586769104004</left_val>
            <right_val>-0.1534861028194428</right_val></_></_>
        <_>
          <_>
            <feature>
              <rects>
                <_>
                  27 5 1 6 -1.</_>
                <_>
                  27 7 1 2 3.</_></rects>
              <tilted>0</tilted></feature>
            <threshold>-7.2616658144397661e-006</threshold>
            <left_val>0.1248627007007599</left_val>
            <right_val>-0.1274838000535965</right_val></_></_>
        <_>
          <_>
            <feature>
              <rects>
                <_>
                  4 5 1 6 -1.</_>
                <_>
                  4 7 1 2 3.</_></rects>
              <tilted>0</tilted></feature>
            <threshold>-3.1164090614765882e-003</threshold>
            <left_val>-0.6813011765480042</left_val>
            <right_val>0.1634202003479004</right_val></_></_>
        <_>
          <_>
            <feature>
              <rects>
                <_>
                  27 3 2 2 -1.</_>
                <_>
                  28 3 1 1 2.</_>
                <_>
                  27 4 1 1 2.</_></rects>
              <tilted>0</tilted></feature>
            <threshold>8.8255728769581765e-006</threshold>
            <left_val>-0.1617137044668198</left_val>
            <right_val>0.2058144956827164</right_val></_></_>
        <_>
          <_>
            <feature>
              <rects>
                <_>
                  3 3 2 2 -1.</_>
                <_>
                  3 3 1 1 2.</_>
                <_>
                  4 4 1 1 2.</_></rects>
              <tilted>0</tilted></feature>
            <threshold>2.5840090529527515e-005</threshold>
            <left_val>-0.2199126034975052</left_val>
            <right_val>0.5616006255149841</right_val></_></_>
        <_>
          <_>
            <feature>
              <rects>
                <_>
                  11 4 15 20 -1.</_>
                <_>
                  11 14 15 10 2.</_></rects>
              <tilted>0</tilted></feature>
            <threshold>0.1056556031107903</threshold>
            <left_val>-0.1322945952415466</left_val>
            <right_val>0.5115941762924194</right_val></_></_>
        <_>
          <_>
            <feature>
              <rects>
                <_>
                  0 14 2 8 -1.</_>
                <_>
                  0 16 2 4 2.</_></rects>
              <tilted>0</tilted></feature>
            <threshold>-3.2260749139823020e-004</threshold>
            <left_val>0.4331356883049011</left_val>
            <right_val>-0.2122759073972702</right_val></_></_>
        <_>
          <_>
            <feature>
              <rects>
                <_>
                  29 4 2 16 -1.</_>
                <_>
                  29 4 1 16 2.</_></rects>
              <tilted>0</tilted></feature>
            <threshold>-3.4504618961364031e-003</threshold>
            <left_val>0.4178735017776489</left_val>
            <right_val>-0.0909120365977287</right_val></_></_>
        <_>
          <_>
            <feature>
              <rects>
                <_>
                  1 4 2 16 -1.</_>
                <_>
                  2 4 1 16 2.</_></rects>
              <tilted>0</tilted></feature>
            <threshold>1.4530000044032931e-003</threshold>
            <left_val>-0.2028390020132065</left_val>
            <right_val>0.6087598800659180</right_val></_></_></trees>
      <stage_threshold>-1.0859349966049194</stage_threshold>
      <parent>6</parent>
      <next>-1</next></_>
    <_>
      <trees>
        <_>
          <_>
            <feature>
              <rects>
                <_>
                  0 8 10 15 -1.</_>
                <_>
                  5 8 5 15 2.</_></rects>
              <tilted>0</tilted></feature>
            <threshold>-0.0976797565817833</threshold>
            <left_val>0.9477710127830505</left_val>
            <right_val>-0.1593832969665527</right_val></_></_>
        <_>
          <_>
            <feature>
              <rects>
                <_>
                  18 12 1 6 -1.</_>
                <_>
                  18 15 1 3 2.</_></rects>
              <tilted>0</tilted></feature>
            <threshold>-8.3851380622945726e-005</threshold>
            <left_val>0.1966359019279480</left_val>
            <right_val>-0.1120214983820915</right_val></_></_>
        <_>
          <_>
            <feature>
              <rects>
                <_>
                  5 5 2 2 -1.</_>
                <_>
                  6 5 1 2 2.</_></rects>
              <tilted>0</tilted></feature>
            <threshold>9.4452334451489151e-006</threshold>
            <left_val>-0.3155811131000519</left_val>
            <right_val>0.3851870000362396</right_val></_></_>
        <_>
          <_>
            <feature>
              <rects>
                <_>
                  19 1 2 2 -1.</_>
                <_>
                  20 1 1 1 2.</_>
                <_>
                  19 2 1 1 2.</_></rects>
              <tilted>0</tilted></feature>
            <threshold>8.0773479567142203e-006</threshold>
            <left_val>-0.0647606328129768</left_val>
            <right_val>0.2094916999340057</right_val></_></_>
        <_>
          <_>
            <feature>
              <rects>
                <_>
                  11 1 2 2 -1.</_>
                <_>
                  11 1 1 1 2.</_>
                <_>
                  12 2 1 1 2.</_></rects>
              <tilted>0</tilted></feature>
            <threshold>1.0007140190282371e-005</threshold>
            <left_val>-0.2311998009681702</left_val>
            <right_val>0.4475525021553040</right_val></_></_>
        <_>
          <_>
            <feature>
              <rects>
                <_>
                  16 21 7 3 -1.</_>
                <_>
                  16 22 7 1 3.</_></rects>
              <tilted>0</tilted></feature>
            <threshold>-3.6636888980865479e-003</threshold>
            <left_val>0.3147734105587006</left_val>
            <right_val>-0.1051260977983475</right_val></_></_>
        <_>
          <_>
            <feature>
              <rects>
                <_>
                  8 7 3 2 -1.</_>
                <_>
                  8 8 3 1 2.</_></rects>
              <tilted>0</tilted></feature>
            <threshold>-7.3031702777370811e-004</threshold>
            <left_val>-0.5277386903762817</left_val>
            <right_val>0.1664085984230042</right_val></_></_>
        <_>
          <_>
            <feature>
              <rects>
                <_>
                  29 15 2 4 -1.</_>
                <_>
                  30 15 1 2 2.</_>
                <_>
                  29 17 1 2 2.</_></rects>
              <tilted>0</tilted></feature>
            <threshold>-3.9172830292955041e-004</threshold>
            <left_val>0.3703582882881165</left_val>
            <right_val>-0.1231435015797615</right_val></_></_>
        <_>
          <_>
            <feature>
              <rects>
                <_>
                  1 15 2 4 -1.</_>
                <_>
                  1 15 1 2 2.</_>
                <_>
                  2 17 1 2 2.</_></rects>
              <tilted>0</tilted></feature>
            <threshold>-6.2353507382795215e-004</threshold>
            <left_val>0.7008326053619385</left_val>
            <right_val>-0.1403792053461075</right_val></_></_>
        <_>
          <_>
            <feature>
              <rects>
                <_>
                  12 17 8 4 -1.</_>
                <_>
                  12 18 8 2 2.</_></rects>
              <tilted>0</tilted></feature>
            <threshold>-1.5987079823389649e-003</threshold>
            <left_val>0.4671482145786285</left_val>
            <right_val>-0.1711912006139755</right_val></_></_>
        <_>
          <_>
            <feature>
              <rects>
                <_>
                  0 18 21 6 -1.</_>
                <_>
                  0 21 21 3 2.</_></rects>
              <tilted>0</tilted></feature>
            <threshold>-0.0392952710390091</threshold>
            <left_val>0.6605818271636963</left_val>
            <right_val>-0.1365250945091248</right_val></_></_>
        <_>
          <_>
            <feature>
              <rects>
                <_>
                  26 20 2 2 -1.</_>
                <_>
                  27 20 1 1 2.</_>
                <_>
                  26 21 1 1 2.</_></rects>
              <tilted>0</tilted></feature>
            <threshold>9.4588276624563150e-006</threshold>
            <left_val>-0.1034749969840050</left_val>
            <right_val>0.2263098955154419</right_val></_></_>
        <_>
          <_>
            <feature>
              <rects>
                <_>
                  14 19 3 4 -1.</_>
                <_>
                  14 20 3 2 2.</_></rects>
              <tilted>0</tilted></feature>
            <threshold>-1.6649879980832338e-003</threshold>
            <left_val>0.5308992862701416</left_val>
            <right_val>-0.1965588927268982</right_val></_></_>
        <_>
          <_>
            <feature>
              <rects>
                <_>
                  26 20 2 2 -1.</_>
                <_>
                  27 20 1 1 2.</_>
                <_>
                  26 21 1 1 2.</_></rects>
              <tilted>0</tilted></feature>
            <threshold>-9.9840181064791977e-006</threshold>
            <left_val>0.1709126979112625</left_val>
            <right_val>-0.1088524982333183</right_val></_></_>
        <_>
          <_>
            <feature>
              <rects>
                <_>
                  4 20 2 2 -1.</_>
                <_>
                  4 20 1 1 2.</_>
                <_>
                  5 21 1 1 2.</_></rects>
              <tilted>0</tilted></feature>
            <threshold>8.6790405475767329e-006</threshold>
            <left_val>-0.2495822012424469</left_val>
            <right_val>0.4235030114650726</right_val></_></_>
        <_>
          <_>
            <feature>
              <rects>
                <_>
                  15 18 12 6 -1.</_>
                <_>
                  19 20 4 2 9.</_></rects>
              <tilted>0</tilted></feature>
            <threshold>-0.0797837376594543</threshold>
            <left_val>-0.5893520712852478</left_val>
            <right_val>0.0546872206032276</right_val></_></_>
        <_>
          <_>
            <feature>
              <rects>
                <_>
                  4 0 23 15 -1.</_>
                <_>
                  4 5 23 5 3.</_></rects>
              <tilted>0</tilted></feature>
            <threshold>-0.1045897975564003</threshold>
            <left_val>0.6157888174057007</left_val>
            <right_val>-0.1561433970928192</right_val></_></_>
        <_>
          <_>
            <feature>
              <rects>
                <_>
                  7 0 24 18 -1.</_>
                <_>
                  15 6 8 6 9.</_></rects>
              <tilted>0</tilted></feature>
            <threshold>0.4283004105091095</threshold>
            <left_val>-0.0570077411830425</left_val>
            <right_val>0.5965322852134705</right_val></_></_>
        <_>
          <_>
            <feature>
              <rects>
                <_>
                  5 9 6 4 -1.</_>
                <_>
                  4 10 6 2 2.</_></rects>
              <tilted>1</tilted></feature>
            <threshold>-5.4896879009902477e-003</threshold>
            <left_val>0.7045688033103943</left_val>
            <right_val>-0.1267327964305878</right_val></_></_>
        <_>
          <_>
            <feature>
              <rects>
                <_>
                  25 7 5 3 -1.</_>
                <_>
                  25 8 5 1 3.</_></rects>
              <tilted>0</tilted></feature>
            <threshold>2.8373950626701117e-003</threshold>
            <left_val>0.1002843007445335</left_val>
            <right_val>-0.5551751852035523</right_val></_></_>
        <_>
          <_>
            <feature>
              <rects>
                <_>
                  2 7 5 3 -1.</_>
                <_>
                  2 8 5 1 3.</_></rects>
              <tilted>0</tilted></feature>
            <threshold>-1.7078999371733516e-004</threshold>
            <left_val>-0.3689725995063782</left_val>
            <right_val>0.3136011064052582</right_val></_></_>
        <_>
          <_>
            <feature>
              <rects>
                <_>
                  30 5 2 2 -1.</_>
                <_>
                  31 5 1 1 2.</_>
                <_>
                  30 6 1 1 2.</_></rects>
              <tilted>0</tilted></feature>
            <threshold>8.7905318650882691e-005</threshold>
            <left_val>-0.1067949980497360</left_val>
            <right_val>0.2964806854724884</right_val></_></_>
        <_>
          <_>
            <feature>
              <rects>
                <_>
                  0 5 2 2 -1.</_>
                <_>
                  0 5 1 1 2.</_>
                <_>
                  1 6 1 1 2.</_></rects>
              <tilted>0</tilted></feature>
            <threshold>1.0555600056250114e-005</threshold>
            <left_val>-0.2188999056816101</left_val>
            <right_val>0.4878341853618622</right_val></_></_>
        <_>
          <_>
            <feature>
              <rects>
                <_>
                  23 7 1 6 -1.</_>
                <_>
                  21 9 1 2 3.</_></rects>
              <tilted>1</tilted></feature>
            <threshold>8.1394950393587351e-004</threshold>
            <left_val>0.1252653002738953</left_val>
            <right_val>-0.1527246981859207</right_val></_></_></trees>
      <stage_threshold>-1.1385699510574341</stage_threshold>
      <parent>7</parent>
      <next>-1</next></_>
    <_>
      <trees>
        <_>
          <_>
            <feature>
              <rects>
                <_>
                  0 10 32 12 -1.</_>
                <_>
                  8 10 16 12 2.</_></rects>
              <tilted>0</tilted></feature>
            <threshold>-0.1403921991586685</threshold>
            <left_val>0.7445859909057617</left_val>
            <right_val>-0.2316416054964066</right_val></_></_>
        <_>
          <_>
            <feature>
              <rects>
                <_>
                  25 20 6 2 -1.</_>
                <_>
                  28 20 3 1 2.</_>
                <_>
                  25 21 3 1 2.</_></rects>
              <tilted>0</tilted></feature>
            <threshold>1.3245949521660805e-003</threshold>
            <left_val>-0.0765486285090446</left_val>
            <right_val>0.5036725997924805</right_val></_></_>
        <_>
          <_>
            <feature>
              <rects>
                <_>
                  1 20 6 2 -1.</_>
                <_>
                  1 20 3 1 2.</_>
                <_>
                  4 21 3 1 2.</_></rects>
              <tilted>0</tilted></feature>
            <threshold>-8.0515007721260190e-004</threshold>
            <left_val>0.6318669915199280</left_val>
            <right_val>-0.1749303936958313</right_val></_></_>
        <_>
          <_>
            <feature>
              <rects>
                <_>
                  12 6 20 16 -1.</_>
                <_>
                  22 6 10 8 2.</_>
                <_>
                  12 14 10 8 2.</_></rects>
              <tilted>0</tilted></feature>
            <threshold>0.1028091013431549</threshold>
            <left_val>-0.0504780784249306</left_val>
            <right_val>0.7137671113014221</right_val></_></_>
        <_>
          <_>
            <feature>
              <rects>
                <_>
                  0 2 16 22 -1.</_>
                <_>
                  0 2 8 11 2.</_>
                <_>
                  8 13 8 11 2.</_></rects>
              <tilted>0</tilted></feature>
            <threshold>-0.0253537409007549</threshold>
            <left_val>0.4369972944259644</left_val>
            <right_val>-0.2694625854492188</right_val></_></_>
        <_>
          <_>
            <feature>
              <rects>
                <_>
                  19 15 4 3 -1.</_>
                <_>
                  20 15 2 3 2.</_></rects>
              <tilted>0</tilted></feature>
            <threshold>-8.1650330685079098e-004</threshold>
            <left_val>-0.3503567874431610</left_val>
            <right_val>0.0913754478096962</right_val></_></_>
        <_>
          <_>
            <feature>
              <rects>
                <_>
                  10 16 2 1 -1.</_>
                <_>
                  11 16 1 1 2.</_></rects>
              <tilted>0</tilted></feature>
            <threshold>2.7107619098387659e-004</threshold>
            <left_val>0.1795302033424377</left_val>
            <right_val>-0.5227528810501099</right_val></_></_>
        <_>
          <_>
            <feature>
              <rects>
                <_>
                  1 3 30 21 -1.</_>
                <_>
                  11 10 10 7 9.</_></rects>
              <tilted>0</tilted></feature>
            <threshold>0.5675464868545532</threshold>
            <left_val>-0.1716469973325729</left_val>
            <right_val>0.8434026837348938</right_val></_></_>
        <_>
          <_>
            <feature>
              <rects>
                <_>
                  0 0 6 7 -1.</_>
                <_>
                  3 0 3 7 2.</_></rects>
              <tilted>0</tilted></feature>
            <threshold>-0.0109563199803233</threshold>
            <left_val>0.7444385290145874</left_val>
            <right_val>-0.1314477026462555</right_val></_></_>
        <_>
          <_>
            <feature>
              <rects>
                <_>
                  17 17 3 3 -1.</_>
                <_>
                  17 18 3 1 3.</_></rects>
              <tilted>0</tilted></feature>
            <threshold>-1.8811710178852081e-003</threshold>
            <left_val>0.3943825066089630</left_val>
            <right_val>-0.0560175403952599</right_val></_></_>
        <_>
          <_>
            <feature>
              <rects>
                <_>
                  1 8 4 2 -1.</_>
                <_>
                  1 9 4 1 2.</_></rects>
              <tilted>0</tilted></feature>
            <threshold>-1.3755209511145949e-003</threshold>
            <left_val>-0.5956845879554749</left_val>
            <right_val>0.1699800044298172</right_val></_></_>
        <_>
          <_>
            <feature>
              <rects>
                <_>
                  26 14 4 6 -1.</_>
                <_>
                  26 14 2 6 2.</_></rects>
              <tilted>0</tilted></feature>
            <threshold>1.7840029904618859e-003</threshold>
            <left_val>-0.1474667042493820</left_val>
            <right_val>0.3047285079956055</right_val></_></_>
        <_>
          <_>
            <feature>
              <rects>
                <_>
                  6 6 16 18 -1.</_>
                <_>
                  6 12 16 6 3.</_></rects>
              <tilted>0</tilted></feature>
            <threshold>-0.0443314984440804</threshold>
            <left_val>0.4307163059711456</left_val>
            <right_val>-0.2714521884918213</right_val></_></_>
        <_>
          <_>
            <feature>
              <rects>
                <_>
                  21 16 5 8 -1.</_>
                <_>
                  21 20 5 4 2.</_></rects>
              <tilted>0</tilted></feature>
            <threshold>-0.0307624097913504</threshold>
            <left_val>0.7547464966773987</left_val>
            <right_val>-0.0544546917080879</right_val></_></_>
        <_>
          <_>
            <feature>
              <rects>
                <_>
                  3 16 22 8 -1.</_>
                <_>
                  3 16 11 4 2.</_>
                <_>
                  14 20 11 4 2.</_></rects>
              <tilted>0</tilted></feature>
            <threshold>0.0376268811523914</threshold>
            <left_val>-0.1142610982060432</left_val>
            <right_val>0.8761938214302063</right_val></_></_>
        <_>
          <_>
            <feature>
              <rects>
                <_>
                  13 2 18 14 -1.</_>
                <_>
                  22 2 9 7 2.</_>
                <_>
                  13 9 9 7 2.</_></rects>
              <tilted>0</tilted></feature>
            <threshold>0.0179724693298340</threshold>
            <left_val>-0.1770202070474625</left_val>
            <right_val>0.3674272894859314</right_val></_></_>
        <_>
          <_>
            <feature>
              <rects>
                <_>
                  9 2 8 15 -1.</_>
                <_>
                  9 7 8 5 3.</_></rects>
              <tilted>0</tilted></feature>
            <threshold>-0.0120377000421286</threshold>
            <left_val>0.5298541784286499</left_val>
            <right_val>-0.2763136923313141</right_val></_></_>
        <_>
          <_>
            <feature>
              <rects>
                <_>
                  10 6 18 18 -1.</_>
                <_>
                  10 15 18 9 2.</_></rects>
              <tilted>0</tilted></feature>
            <threshold>-0.0751706212759018</threshold>
            <left_val>0.4600884914398193</left_val>
            <right_val>-0.2609922885894775</right_val></_></_>
        <_>
          <_>
            <feature>
              <rects>
                <_>
                  16 0 15 2 -1.</_>
                <_>
                  16 0 15 1 2.</_></rects>
              <tilted>1</tilted></feature>
            <threshold>-3.6694779992103577e-003</threshold>
            <left_val>0.5049008727073669</left_val>
            <right_val>-0.2295754998922348</right_val></_></_></trees>
      <stage_threshold>-1.1107360124588013</stage_threshold>
      <parent>8</parent>
      <next>-1</next></_>
    <_>
      <trees>
        <_>
          <_>
            <feature>
              <rects>
                <_>
                  2 22 24 2 -1.</_>
                <_>
                  2 23 24 1 2.</_></rects>
              <tilted>0</tilted></feature>
            <threshold>0.0187553502619267</threshold>
            <left_val>-0.1724099963903427</left_val>
            <right_val>0.9503008127212524</right_val></_></_>
        <_>
          <_>
            <feature>
              <rects>
                <_>
                  27 0 2 24 -1.</_>
                <_>
                  27 0 1 24 2.</_></rects>
              <tilted>0</tilted></feature>
            <threshold>-4.2443568818271160e-003</threshold>
            <left_val>0.5853406786918640</left_val>
            <right_val>-0.0893373712897301</right_val></_></_>
        <_>
          <_>
            <feature>
              <rects>
                <_>
                  9 8 2 1 -1.</_>
                <_>
                  10 8 1 1 2.</_></rects>
              <tilted>0</tilted></feature>
            <threshold>9.4452334451489151e-006</threshold>
            <left_val>-0.2367144972085953</left_val>
            <right_val>0.4794129133224487</right_val></_></_>
        <_>
          <_>
            <feature>
              <rects>
                <_>
                  27 0 2 24 -1.</_>
                <_>
                  27 0 1 24 2.</_></rects>
              <tilted>0</tilted></feature>
            <threshold>5.0689058844000101e-004</threshold>
            <left_val>-0.3308112025260925</left_val>
            <right_val>0.4290497004985809</right_val></_></_>
        <_>
          <_>
            <feature>
              <rects>
                <_>
                  3 0 2 24 -1.</_>
                <_>
                  4 0 1 24 2.</_></rects>
              <tilted>0</tilted></feature>
            <threshold>-4.8738908953964710e-003</threshold>
            <left_val>0.8662378191947937</left_val>
            <right_val>-0.1814630925655365</right_val></_></_>
        <_>
          <_>
            <feature>
              <rects>
                <_>
                  28 14 2 2 -1.</_>
                <_>
                  29 14 1 1 2.</_>
                <_>
                  28 15 1 1 2.</_></rects>
              <tilted>0</tilted></feature>
            <threshold>-8.7457838162663393e-006</threshold>
            <left_val>0.4019441902637482</left_val>
            <right_val>-0.1574279963970184</right_val></_></_>
        <_>
          <_>
            <feature>
              <rects>
                <_>
                  2 14 2 2 -1.</_>
                <_>
                  2 14 1 1 2.</_>
                <_>
                  3 15 1 1 2.</_></rects>
              <tilted>0</tilted></feature>
            <threshold>-7.8765606303932145e-006</threshold>
            <left_val>0.4615468084812164</left_val>
            <right_val>-0.2457900941371918</right_val></_></_>
        <_>
          <_>
            <feature>
              <rects>
                <_>
                  13 1 13 4 -1.</_>
                <_>
                  13 2 13 2 2.</_></rects>
              <tilted>0</tilted></feature>
            <threshold>-5.6412657722830772e-003</threshold>
            <left_val>0.4937180876731873</left_val>
            <right_val>-0.1392865926027298</right_val></_></_>
        <_>
          <_>
            <feature>
              <rects>
                <_>
                  8 14 2 2 -1.</_>
                <_>
                  8 14 1 1 2.</_>
                <_>
                  9 15 1 1 2.</_></rects>
              <tilted>0</tilted></feature>
            <threshold>-1.0007140190282371e-005</threshold>
            <left_val>0.5419918894767761</left_val>
            <right_val>-0.2323226034641266</right_val></_></_>
        <_>
          <_>
            <feature>
              <rects>
                <_>
                  26 11 1 2 -1.</_>
                <_>
                  26 12 1 1 2.</_></rects>
              <tilted>0</tilted></feature>
            <threshold>-1.0756260053312872e-005</threshold>
            <left_val>0.2299026995897293</left_val>
            <right_val>-0.1452679038047791</right_val></_></_>
        <_>
          <_>
            <feature>
              <rects>
                <_>
                  4 2 2 2 -1.</_>
                <_>
                  4 2 1 1 2.</_>
                <_>
                  5 3 1 1 2.</_></rects>
              <tilted>0</tilted></feature>
            <threshold>9.9300887086428702e-006</threshold>
            <left_val>-0.2235108017921448</left_val>
            <right_val>0.4974282085895538</right_val></_></_>
        <_>
          <_>
            <feature>
              <rects>
                <_>
                  28 0 4 1 -1.</_>
                <_>
                  28 0 2 1 2.</_></rects>
              <tilted>0</tilted></feature>
            <threshold>8.8881988631328568e-006</threshold>
            <left_val>-0.2576724886894226</left_val>
            <right_val>0.3104428052902222</right_val></_></_>
        <_>
          <_>
            <feature>
              <rects>
                <_>
                  0 0 4 1 -1.</_>
                <_>
                  2 0 2 1 2.</_></rects>
              <tilted>0</tilted></feature>
            <threshold>9.7494030342204496e-006</threshold>
            <left_val>-0.3197113871574402</left_val>
            <right_val>0.4428752958774567</right_val></_></_>
        <_>
          <_>
            <feature>
              <rects>
                <_>
                  16 7 2 15 -1.</_>
                <_>
                  11 12 2 5 3.</_></rects>
              <tilted>1</tilted></feature>
            <threshold>-6.4148912206292152e-003</threshold>
            <left_val>0.1947387009859085</left_val>
            <right_val>-0.2363677024841309</right_val></_></_>
        <_>
          <_>
            <feature>
              <rects>
                <_>
                  4 12 2 12 -1.</_>
                <_>
                  5 12 1 12 2.</_></rects>
              <tilted>0</tilted></feature>
            <threshold>4.4922440429218113e-004</threshold>
            <left_val>-0.2792860865592957</left_val>
            <right_val>0.5248202085494995</right_val></_></_>
        <_>
          <_>
            <feature>
              <rects>
                <_>
                  0 2 32 13 -1.</_>
                <_>
                  8 2 16 13 2.</_></rects>
              <tilted>0</tilted></feature>
            <threshold>-0.0572066493332386</threshold>
            <left_val>0.6618216037750244</left_val>
            <right_val>-0.3452500998973846</right_val></_></_>
        <_>
          <_>
            <feature>
              <rects>
                <_>
                  4 2 1 2 -1.</_>
                <_>
                  4 3 1 1 2.</_></rects>
              <tilted>0</tilted></feature>
            <threshold>8.7457838162663393e-006</threshold>
            <left_val>-0.3206537961959839</left_val>
            <right_val>0.5769804120063782</right_val></_></_>
        <_>
          <_>
            <feature>
              <rects>
                <_>
                  19 6 3 12 -1.</_>
                <_>
                  19 6 3 6 2.</_></rects>
              <tilted>1</tilted></feature>
            <threshold>1.5376659575849771e-003</threshold>
            <left_val>-0.3739613890647888</left_val>
            <right_val>0.2448585927486420</right_val></_></_>
        <_>
          <_>
            <feature>
              <rects>
                <_>
                  11 17 10 3 -1.</_>
                <_>
                  11 18 10 1 3.</_></rects>
              <tilted>0</tilted></feature>
            <threshold>1.9498809706419706e-005</threshold>
            <left_val>-0.4541406035423279</left_val>
            <right_val>0.5038583874702454</right_val></_></_></trees>
      <stage_threshold>-1.5324200391769409</stage_threshold>
      <parent>9</parent>
      <next>-1</next></_>
    <_>
      <trees>
        <_>
          <_>
            <feature>
              <rects>
                <_>
                  1 2 8 22 -1.</_>
                <_>
                  3 2 4 22 2.</_></rects>
              <tilted>0</tilted></feature>
            <threshold>-8.7273120880126953e-003</threshold>
            <left_val>0.5212932825088501</left_val>
            <right_val>-0.2624495029449463</right_val></_></_>
        <_>
          <_>
            <feature>
              <rects>
                <_>
                  26 0 6 22 -1.</_>
                <_>
                  26 0 3 22 2.</_></rects>
              <tilted>0</tilted></feature>
            <threshold>-0.0247559603303671</threshold>
            <left_val>0.6125140786170960</left_val>
            <right_val>-0.1707323044538498</right_val></_></_>
        <_>
          <_>
            <feature>
              <rects>
                <_>
                  0 0 6 22 -1.</_>
                <_>
                  3 0 3 22 2.</_></rects>
              <tilted>0</tilted></feature>
            <threshold>0.0299468692392111</threshold>
            <left_val>-0.2107501029968262</left_val>
            <right_val>0.7598881721496582</right_val></_></_>
        <_>
          <_>
            <feature>
              <rects>
                <_>
                  10 1 14 4 -1.</_>
                <_>
                  10 2 14 2 2.</_></rects>
              <tilted>0</tilted></feature>
            <threshold>-2.8806230984628201e-003</threshold>
            <left_val>0.4219327867031097</left_val>
            <right_val>-0.1753005981445313</right_val></_></_>
        <_>
          <_>
            <feature>
              <rects>
                <_>
                  8 13 1 2 -1.</_>
                <_>
                  8 14 1 1 2.</_></rects>
              <tilted>0</tilted></feature>
            <threshold>-7.2616658144397661e-006</threshold>
            <left_val>0.3818182945251465</left_val>
            <right_val>-0.3053472042083740</right_val></_></_>
        <_>
          <_>
            <feature>
              <rects>
                <_>
                  12 1 20 8 -1.</_>
                <_>
                  12 1 10 8 2.</_></rects>
              <tilted>0</tilted></feature>
            <threshold>0.0342566817998886</threshold>
            <left_val>-0.1481200009584427</left_val>
            <right_val>0.3412272036075592</right_val></_></_>
        <_>
          <_>
            <feature>
              <rects>
                <_>
                  6 6 20 2 -1.</_>
                <_>
                  16 6 10 2 2.</_></rects>
              <tilted>0</tilted></feature>
            <threshold>1.3823589542880654e-003</threshold>
            <left_val>-0.2608262002468109</left_val>
            <right_val>0.5040022134780884</right_val></_></_>
        <_>
          <_>
            <feature>
              <rects>
                <_>
                  16 0 3 16 -1.</_>
                <_>
                  17 1 1 16 3.</_></rects>
              <tilted>1</tilted></feature>
            <threshold>-0.0201969407498837</threshold>
            <left_val>-0.8175464272499085</left_val>
            <right_val>0.0291411094367504</right_val></_></_>
        <_>
          <_>
            <feature>
              <rects>
                <_>
                  1 14 4 3 -1.</_>
                <_>
                  2 14 2 3 2.</_></rects>
              <tilted>0</tilted></feature>
            <threshold>-6.3250411767512560e-004</threshold>
            <left_val>0.6048982739448547</left_val>
            <right_val>-0.1774462014436722</right_val></_></_>
        <_>
          <_>
            <feature>
              <rects>
                <_>
                  26 13 6 1 -1.</_>
                <_>
                  28 13 2 1 3.</_></rects>
              <tilted>0</tilted></feature>
            <threshold>-7.5404951348900795e-004</threshold>
            <left_val>0.5424044132232666</left_val>
            <right_val>-0.1712910979986191</right_val></_></_>
        <_>
          <_>
            <feature>
              <rects>
                <_>
                  0 13 6 1 -1.</_>
                <_>
                  2 13 2 1 3.</_></rects>
              <tilted>0</tilted></feature>
            <threshold>1.1093569919466972e-003</threshold>
            <left_val>-0.1913575977087021</left_val>
            <right_val>0.6264923810958862</right_val></_></_>
        <_>
          <_>
            <feature>
              <rects>
                <_>
                  30 0 2 2 -1.</_>
                <_>
                  31 0 1 1 2.</_>
                <_>
                  30 1 1 1 2.</_></rects>
              <tilted>0</tilted></feature>
            <threshold>-8.0773479567142203e-006</threshold>
            <left_val>0.1738384068012238</left_val>
            <right_val>-0.0766964331269264</right_val></_></_>
        <_>
          <_>
            <feature>
              <rects>
                <_>
                  0 0 2 2 -1.</_>
                <_>
                  0 0 1 1 2.</_>
                <_>
                  1 1 1 1 2.</_></rects>
              <tilted>0</tilted></feature>
            <threshold>-8.8886517914943397e-006</threshold>
            <left_val>0.4403483867645264</left_val>
            <right_val>-0.2371437996625900</right_val></_></_>
        <_>
          <_>
            <feature>
              <rects>
                <_>
                  10 20 12 3 -1.</_>
                <_>
                  10 21 12 1 3.</_></rects>
              <tilted>0</tilted></feature>
            <threshold>-1.0567239951342344e-003</threshold>
            <left_val>0.4821672141551971</left_val>
            <right_val>-0.2580679953098297</right_val></_></_>
        <_>
          <_>
            <feature>
              <rects>
                <_>
                  11 5 1 2 -1.</_>
                <_>
                  11 5 1 1 2.</_></rects>
              <tilted>1</tilted></feature>
            <threshold>9.4452334451489151e-006</threshold>
            <left_val>-0.2441062927246094</left_val>
            <right_val>0.4048872888088226</right_val></_></_>
        <_>
          <_>
            <feature>
              <rects>
                <_>
                  10 0 20 6 -1.</_>
                <_>
                  15 0 10 6 2.</_></rects>
              <tilted>0</tilted></feature>
            <threshold>0.0209406390786171</threshold>
            <left_val>-0.1363828033208847</left_val>
            <right_val>0.7227231860160828</right_val></_></_>
        <_>
          <_>
            <feature>
              <rects>
                <_>
                  0 2 2 1 -1.</_>
                <_>
                  1 2 1 1 2.</_></rects>
              <tilted>0</tilted></feature>
            <threshold>8.8886517914943397e-006</threshold>
            <left_val>-0.2635504901409149</left_val>
            <right_val>0.4316321015357971</right_val></_></_>
        <_>
          <_>
            <feature>
              <rects>
                <_>
                  13 3 18 2 -1.</_>
                <_>
                  19 3 6 2 3.</_></rects>
              <tilted>0</tilted></feature>
            <threshold>-7.5329281389713287e-003</threshold>
            <left_val>0.3280748128890991</left_val>
            <right_val>-0.1576451957225800</right_val></_></_>
        <_>
          <_>
            <feature>
              <rects>
                <_>
                  15 2 2 14 -1.</_>
                <_>
                  15 2 1 7 2.</_>
                <_>
                  16 9 1 7 2.</_></rects>
              <tilted>0</tilted></feature>
            <threshold>-9.5758559837122448e-006</threshold>
            <left_val>0.4525367021560669</left_val>
            <right_val>-0.2784079909324646</right_val></_></_></trees>
      <stage_threshold>-1.2196589708328247</stage_threshold>
      <parent>10</parent>
      <next>-1</next></_>
    <_>
      <trees>
        <_>
          <_>
            <feature>
              <rects>
                <_>
                  0 14 32 6 -1.</_>
                <_>
                  8 14 16 6 2.</_></rects>
              <tilted>0</tilted></feature>
            <threshold>-0.0546141713857651</threshold>
            <left_val>0.6155351996421814</left_val>
            <right_val>-0.2639436125755310</right_val></_></_>
        <_>
          <_>
            <feature>
              <rects>
                <_>
                  23 16 2 2 -1.</_>
                <_>
                  23 16 1 2 2.</_></rects>
              <tilted>0</tilted></feature>
            <threshold>-2.1360020036809146e-004</threshold>
            <left_val>-0.3311102092266083</left_val>
            <right_val>0.1757120937108994</right_val></_></_>
        <_>
          <_>
            <feature>
              <rects>
                <_>
                  0 2 32 8 -1.</_>
                <_>
                  8 2 16 8 2.</_></rects>
              <tilted>0</tilted></feature>
            <threshold>0.0750935524702072</threshold>
            <left_val>-0.1934901028871536</left_val>
            <right_val>0.7018386125564575</right_val></_></_>
        <_>
          <_>
            <feature>
              <rects>
                <_>
                  20 15 6 3 -1.</_>
                <_>
                  22 15 2 3 3.</_></rects>
              <tilted>0</tilted></feature>
            <threshold>1.7940349644050002e-003</threshold>
            <left_val>0.1111861988902092</left_val>
            <right_val>-0.2770724892616272</right_val></_></_>
        <_>
          <_>
            <feature>
              <rects>
                <_>
                  6 15 6 3 -1.</_>
                <_>
                  8 15 2 3 3.</_></rects>
              <tilted>0</tilted></feature>
            <threshold>-2.3572430945932865e-003</threshold>
            <left_val>-0.5705814957618713</left_val>
            <right_val>0.2222571969032288</right_val></_></_>
        <_>
          <_>
            <feature>
              <rects>
                <_>
                  14 3 18 10 -1.</_>
                <_>
                  14 3 9 10 2.</_></rects>
              <tilted>0</tilted></feature>
            <threshold>-0.0507375411689281</threshold>
            <left_val>0.3288744986057282</left_val>
            <right_val>-0.2011512964963913</right_val></_></_>
        <_>
          <_>
            <feature>
              <rects>
                <_>
                  1 12 8 12 -1.</_>
                <_>
                  1 12 4 6 2.</_>
                <_>
                  5 18 4 6 2.</_></rects>
              <tilted>0</tilted></feature>
            <threshold>-0.0237866993993521</threshold>
            <left_val>0.8785002827644348</left_val>
            <right_val>-0.1123903989791870</right_val></_></_>
        <_>
          <_>
            <feature>
              <rects>
                <_>
                  25 7 6 16 -1.</_>
                <_>
                  28 7 3 8 2.</_>
                <_>
                  25 15 3 8 2.</_></rects>
              <tilted>0</tilted></feature>
            <threshold>-0.0119837401434779</threshold>
            <left_val>0.5888342857360840</left_val>
            <right_val>-0.1081919968128204</right_val></_></_>
        <_>
          <_>
            <feature>
              <rects>
                <_>
                  1 7 6 16 -1.</_>
                <_>
                  1 7 3 8 2.</_>
                <_>
                  4 15 3 8 2.</_></rects>
              <tilted>0</tilted></feature>
            <threshold>0.0214553698897362</threshold>
            <left_val>-0.1534774005413055</left_val>
            <right_val>0.7960096001625061</right_val></_></_>
        <_>
          <_>
            <feature>
              <rects>
                <_>
                  8 11 23 4 -1.</_>
                <_>
                  8 12 23 2 2.</_></rects>
              <tilted>0</tilted></feature>
            <threshold>-4.5061227865517139e-003</threshold>
            <left_val>0.6140782237052918</left_val>
            <right_val>-0.1329821050167084</right_val></_></_>
        <_>
          <_>
            <feature>
              <rects>
                <_>
                  11 4 2 12 -1.</_>
                <_>
                  12 4 1 12 2.</_></rects>
              <tilted>0</tilted></feature>
            <threshold>5.4329319391399622e-004</threshold>
            <left_val>0.3323568105697632</left_val>
            <right_val>-0.3458870947360992</right_val></_></_>
        <_>
          <_>
            <feature>
              <rects>
                <_>
                  27 10 2 3 -1.</_>
                <_>
                  27 10 1 3 2.</_></rects>
              <tilted>1</tilted></feature>
            <threshold>-2.2660440299659967e-003</threshold>
            <left_val>0.3376963138580322</left_val>
            <right_val>-0.0709320828318596</right_val></_></_>
        <_>
          <_>
            <feature>
              <rects>
                <_>
                  5 10 3 2 -1.</_>
                <_>
                  5 10 3 1 2.</_></rects>
              <tilted>1</tilted></feature>
            <threshold>1.2028140481561422e-003</threshold>
            <left_val>-0.1991357058286667</left_val>
            <right_val>0.5586618781089783</right_val></_></_>
        <_>
          <_>
            <feature>
              <rects>
                <_>
                  7 4 18 8 -1.</_>
                <_>
                  13 4 6 8 3.</_></rects>
              <tilted>0</tilted></feature>
            <threshold>0.0372063592076302</threshold>
            <left_val>-0.1490883976221085</left_val>
            <right_val>0.6723039150238037</right_val></_></_>
        <_>
          <_>
            <feature>
              <rects>
                <_>
                  15 9 2 2 -1.</_>
                <_>
                  15 10 2 1 2.</_></rects>
              <tilted>0</tilted></feature>
            <threshold>-9.2686896095983684e-006</threshold>
            <left_val>0.3889653086662293</left_val>
            <right_val>-0.2356949001550674</right_val></_></_>
        <_>
          <_>
            <feature>
              <rects>
                <_>
                  14 5 9 16 -1.</_>
                <_>
                  14 13 9 8 2.</_></rects>
              <tilted>0</tilted></feature>
            <threshold>0.1154922023415566</threshold>
            <left_val>-0.0590440295636654</left_val>
            <right_val>0.7793239951133728</right_val></_></_>
        <_>
          <_>
            <feature>
              <rects>
                <_>
                  2 3 1 2 -1.</_>
                <_>
                  2 4 1 1 2.</_></rects>
              <tilted>0</tilted></feature>
            <threshold>-7.8248485806398094e-006</threshold>
            <left_val>0.3658953905105591</left_val>
            <right_val>-0.2346816956996918</right_val></_></_>
        <_>
          <_>
            <feature>
              <rects>
                <_>
                  0 2 32 18 -1.</_>
                <_>
                  0 2 16 18 2.</_></rects>
              <tilted>0</tilted></feature>
            <threshold>0.1210936009883881</threshold>
            <left_val>-0.1687134951353073</left_val>
            <right_val>0.5545005798339844</right_val></_></_>
        <_>
          <_>
            <feature>
              <rects>
                <_>
                  7 18 3 1 -1.</_>
                <_>
                  8 18 1 1 3.</_></rects>
              <tilted>0</tilted></feature>
            <threshold>1.7122579447459430e-004</threshold>
            <left_val>0.2030557990074158</left_val>
            <right_val>-0.4593609869480133</right_val></_></_></trees>
      <stage_threshold>-1.1981780529022217</stage_threshold>
      <parent>11</parent>
      <next>-1</next></_>
    <_>
      <trees>
        <_>
          <_>
            <feature>
              <rects>
                <_>
                  0 3 6 18 -1.</_>
                <_>
                  3 3 3 18 2.</_></rects>
              <tilted>0</tilted></feature>
            <threshold>-0.0210659895092249</threshold>
            <left_val>0.6093094944953919</left_val>
            <right_val>-0.2318660020828247</right_val></_></_>
        <_>
          <_>
            <feature>
              <rects>
                <_>
                  18 15 4 1 -1.</_>
                <_>
                  19 15 2 1 2.</_></rects>
              <tilted>0</tilted></feature>
            <threshold>1.7914950149133801e-004</threshold>
            <left_val>0.1936659961938858</left_val>
            <right_val>-0.3913910090923309</right_val></_></_>
        <_>
          <_>
            <feature>
              <rects>
                <_>
                  10 15 4 1 -1.</_>
                <_>
                  11 15 2 1 2.</_></rects>
              <tilted>0</tilted></feature>
            <threshold>-2.6524459826759994e-004</threshold>
            <left_val>-0.5814564228057861</left_val>
            <right_val>0.2180266976356506</right_val></_></_>
        <_>
          <_>
            <feature>
              <rects>
                <_>
                  20 15 2 2 -1.</_>
                <_>
                  20 15 1 2 2.</_></rects>
              <tilted>0</tilted></feature>
            <threshold>-2.1414209913928062e-004</threshold>
            <left_val>-0.3684054017066956</left_val>
            <right_val>0.0995403230190277</right_val></_></_>
        <_>
          <_>
            <feature>
              <rects>
                <_>
                  10 15 4 1 -1.</_>
                <_>
                  11 15 2 1 2.</_></rects>
              <tilted>0</tilted></feature>
            <threshold>3.3170898677781224e-004</threshold>
            <left_val>0.1831901967525482</left_val>
            <right_val>-0.5325186848640442</right_val></_></_>
        <_>
          <_>
            <feature>
              <rects>
                <_>
                  16 10 16 10 -1.</_>
                <_>
                  24 10 8 5 2.</_>
                <_>
                  16 15 8 5 2.</_></rects>
              <tilted>0</tilted></feature>
            <threshold>-0.0221041608601809</threshold>
            <left_val>0.4179332852363586</left_val>
            <right_val>-0.1418063044548035</right_val></_></_>
        <_>
          <_>
            <feature>
              <rects>
                <_>
                  4 23 8 1 -1.</_>
                <_>
                  6 23 4 1 2.</_></rects>
              <tilted>0</tilted></feature>
            <threshold>4.4961960520595312e-004</threshold>
            <left_val>0.2541922926902771</left_val>
            <right_val>-0.3760924935340881</right_val></_></_>
        <_>
          <_>
            <feature>
              <rects>
                <_>
                  26 4 6 4 -1.</_>
                <_>
                  26 4 3 4 2.</_></rects>
              <tilted>0</tilted></feature>
